{"learner":{"attributes":{"best_iteration":"79","best_score":"0.6818876743129811","scikit_learn":"{\"_estimator_type\": \"classifier\"}"},"feature_names":["total_orders","total_revenue","avg_order_value","T","recency","days_since_last_order","frequency","monetary_value","refund_rate"],"feature_types":["int","float","float","int","int","int","int","float","float"],"gradient_booster":{"model":{"cats":{"enc":[],"feature_segments":[],"sorted_idx":[]},"gbtree_model_param":{"num_parallel_tree":"1","num_trees":"110"},"iteration_indptr":[0,1,2,3,4,5,6,7,8,9,10,11,12,13,14,15,16,17,18,19,20,21,22,23,24,25,26,27,28,29,30,31,32,33,34,35,36,37,38,39,40,41,42,43,44,45,46,47,48,49,50,51,52,53,54,55,56,57,58,59,60,61,62,63,64,65,66,67,68,69,70,71,72,73,74,75,76,77,78,79,80,81,82,83,84,85,86,87,88,89,90,91,92,93,94,95,96,97,98,99,100,101,102,103,104,105,106,107,108,109,110],"tree_info":[0,0,0,0,0,0,0,0,0,0,0,0,0,0,0,0,0,0,0,0,0,0,0,0,0,0,0,0,0,0,0,0,0,0,0,0,0,0,0,0,0,0,0,0,0,0,0,0,0,0,0,0,0,0,0,0,0,0,0,0,0,0,0,0,0,0,0,0,0,0,0,0,0,0,0,0,0,0,0,0,0,0,0,0,0,0,0,0,0,0,0,0,0,0,0,0,0,0,0,0,0,0,0,0,0,0,0,0,0,0],"trees":[{"base_weights":[2.5182834E-3,-5.847512E-1,3.1590888E-1,-3.3951065E-1,-1.3133538E0,1.4806637E-2,6.0317975E-1,-1.23340875E-1,-3.9959925E-1,-9.958594E-1,-1.6009514E0,1.3674876E-1,-7.763273E-1,6.5924543E-1,-2.3854907E-1,-5.876914E-1,-6.950214E-2,-6.647007E-1,-3.6818954E-1,-7.942281E-2,-9.475322E-1,-9.1140114E-2,-1.3910204E0,5.73093E-1,3.8184345E-2,-6.223188E-1,-8.9550155E-1,7.804756E-1,4.6922258E-1,1.5338938E-1,-4.3723553E-1,-4.529952E-2,-4.1510257E-1,-4.3917865E-1,-3.9127234E-2,-1.2496621E-2,-6.9341075E-1,-3.1904948E-1,-4.5725518E-1,-1.0010529E0,-7.600599E-1,-6.4001374E-2,-7.685142E-2,7.1787244E-1,3.3109385E-1,1.504168E-1,-1.1108038E-1,-6.8085456E-1,-3.22415E-3,-7.801119E-1,-5.270308E-2,1.4612491E0,7.4871445E-1,4.983052E-1,1.6331029E-1,5.660405E-1,-2.642263E-1,-5.940545E-1,-2.133922E-1,-7.0006787E-3,-2.999253E-2,-4.5235846E-2,-2.5710235E-3,3.087859E-4,-1.5031419E-2,-3.2392506E-2,-4.2945914E-2,-1.6377026E-2,1.4543885E-2,-2.73203E-2,-1.8280365E-2,-4.582391E-2,-6.0015053E-2,-2.0221654E-2,-4.5486137E-2,4.1543882E-2,2.966088E-2,5.825197E-3,2.7693057E-2,1.1748621E-2,1.5340679E-3,-1.6041456E-3,-1.3101123E-2,-1.7448545E-2,-3.809303E-2,-3.625331E-2,-5.5392265E-2,8.676599E-2,3.52215E-2,3.0751515E-2,4.0439975E-2,1.4164216E-2,2.6694695E-2,1.19914925E-2,-1.4111392E-2,1.4784261E-2,4.3165226E-2,-2.3246752E-2,-2.087248E-4,-2.3591874E-2,-4.2932585E-2,8.017728E-3,-2.8162047E-2],"categories":[],"categories_nodes":[],"categories_segments":[],"categories_sizes":[],"default_left":[0,0,0,0,0,0,0,0,0,0,0,0,0,0,0,0,0,0,0,0,0,0,0,0,0,0,0,0,0,0,0,0,0,0,0,0,0,0,0,0,0,0,0,0,0,0,0,0,0,0,0,0,0,0,0,0,0,0,0,0,0,0,0,0,0,0,0,0,0,0,0,0,0,0,0,0,0,0,0,0,0,0,0,0,0,0,0,0,0,0,0,0,0,0,0,0,0,0,0,0,0,0,0],"id":0,"left_children":[1,3,5,7,9,11,13,15,17,19,21,23,25,27,29,31,33,35,37,-1,39,-1,41,43,45,47,49,51,53,55,57,-1,59,61,63,-1,65,67,69,71,73,-1,-1,75,77,79,81,83,-1,85,-1,87,89,91,93,95,97,99,101,-1,-1,-1,-1,-1,-1,-1,-1,-1,-1,-1,-1,-1,-1,-1,-1,-1,-1,-1,-1,-1,-1,-1,-1,-1,-1,-1,-1,-1,-1,-1,-1,-1,-1,-1,-1,-1,-1,-1,-1,-1,-1,-1,-1],"loss_changes":[1.2679166E3,4.2788123E2,3.885429E2,2.3264252E1,5.3494873E1,2.1179054E2,1.0864209E2,9.755054E0,1.1445892E1,6.7828674E0,1.2131165E1,8.1781586E1,4.823944E0,4.9289062E1,1.1303334E1,1.8529978E0,3.9382892E0,1.5829391E0,5.357834E0,0E0,1.9488068E0,0E0,7.2317505E-1,1.2039398E1,2.6027128E1,4.2396126E0,2.1602173E0,2.7327087E1,7.4101715E0,8.641873E0,3.243475E0,0E0,1.3469691E0,4.7639337E0,3.8711348E0,0E0,4.7942352E-1,4.3093414E0,3.434494E0,2.3869476E0,3.045292E0,0E0,0E0,2.5834427E0,6.2943716E0,8.9698715E0,7.944417E0,2.923149E0,0E0,9.682541E-1,0E0,1.0712753E1,9.606628E0,5.729294E0,2.6106615E0,1.7623701E0,1.312016E0,1.4024734E0,5.4660892E0,0E0,0E0,0E0,0E0,0E0,0E0,0E0,0E0,0E0,0E0,0E0,0E0,0E0,0E0,0E0,0E0,0E0,0E0,0E0,0E0,0E0,0E0,0E0,0E0,0E0,0E0,0E0,0E0,0E0,0E0,0E0,0E0,0E0,0E0,0E0,0E0,0E0,0E0,0E0,0E0,0E0,0E0,0E0,0E0],"parents":[2147483647,0,0,1,1,2,2,3,3,4,4,5,5,6,6,7,7,8,8,9,9,10,10,11,11,12,12,13,13,14,14,15,15,16,16,17,17,18,18,20,20,22,22,23,23,24,24,25,25,26,26,27,27,28,28,29,29,30,30,32,32,33,33,34,34,36,36,37,37,38,38,39,39,40,40,43,43,44,44,45,45,46,46,47,47,49,49,51,51,52,52,53,53,54,54,55,55,56,56,57,57,58,58],"right_children":[2,4,6,8,10,12,14,16,18,20,22,24,26,28,30,32,34,36,38,-1,40,-1,42,44,46,48,50,52,54,56,58,-1,60,62,64,-1,66,68,70,72,74,-1,-1,76,78,80,82,84,-1,86,-1,88,90,92,94,96,98,100,102,-1,-1,-1,-1,-1,-1,-1,-1,-1,-1,-1,-1,-1,-1,-1,-1,-1,-1,-1,-1,-1,-1,-1,-1,-1,-1,-1,-1,-1,-1,-1,-1,-1,-1,-1,-1,-1,-1,-1,-1,-1,-1,-1,-1],"split_conditions":[1.32E2,1.6E1,2.44E2,1.2903E2,3E0,1.1E1,1.9E1,1.5E1,1.4E1,6.716E1,8.498E1,1.2307E2,7.7E1,1.6419E2,4.9E1,1.09E2,2.564E1,1.3779E2,1.9782E2,-7.942281E-2,2.69E2,-9.1140114E-2,4E0,1.13E2,1.88E2,2.54E2,3E0,1.165E1,4.4879E2,3.3736E2,3.18E2,-4.529952E-2,1.1919E2,6.2E1,1.21E2,-1.2496621E-2,1.2E1,1.3E2,2.5223E2,1.88E2,3.52E2,-6.4001374E-2,-7.685142E-2,1.0091E2,1.1856E2,1.7102E2,1.8944E2,1.81E2,-3.22415E-3,2.9256E2,-5.270308E-2,4.77E2,3.22E2,2.85E2,6E0,2.9E1,2.0046E2,4.64E2,3.1328E2,-7.0006787E-3,-2.999253E-2,-4.5235846E-2,-2.5710235E-3,3.087859E-4,-1.5031419E-2,-3.2392506E-2,-4.2945914E-2,-1.6377026E-2,1.4543885E-2,-2.73203E-2,-1.8280365E-2,-4.582391E-2,-6.0015053E-2,-2.0221654E-2,-4.5486137E-2,4.1543882E-2,2.966088E-2,5.825197E-3,2.7693057E-2,1.1748621E-2,1.5340679E-3,-1.6041456E-3,-1.3101123E-2,-1.7448545E-2,-3.809303E-2,-3.625331E-2,-5.5392265E-2,8.676599E-2,3.52215E-2,3.0751515E-2,4.0439975E-2,1.4164216E-2,2.6694695E-2,1.19914925E-2,-1.4111392E-2,1.4784261E-2,4.3165226E-2,-2.3246752E-2,-2.087248E-4,-2.3591874E-2,-4.2932585E-2,8.017728E-3,-2.8162047E-2],"split_indices":[5,4,5,1,0,4,4,3,5,1,2,1,4,1,4,1,1,1,1,0,3,0,0,2,3,3,0,2,1,1,5,0,2,3,3,0,3,5,2,3,3,0,0,2,1,2,2,3,0,2,0,5,5,3,4,4,2,3,1,0,0,0,0,0,0,0,0,0,0,0,0,0,0,0,0,0,0,0,0,0,0,0,0,0,0,0,0,0,0,0,0,0,0,0,0,0,0,0,0,0,0,0,0],"split_type":[0,0,0,0,0,0,0,0,0,0,0,0,0,0,0,0,0,0,0,0,0,0,0,0,0,0,0,0,0,0,0,0,0,0,0,0,0,0,0,0,0,0,0,0,0,0,0,0,0,0,0,0,0,0,0,0,0,0,0,0,0,0,0,0,0,0,0,0,0,0,0,0,0,0,0,0,0,0,0,0,0,0,0,0,0,0,0,0,0,0,0,0,0,0,0,0,0,0,0,0,0,0,0],"sum_hessian":[6.8871733E3,2.396136E3,4.491037E3,1.7938198E3,6.023162E2,2.1932446E3,2.2977925E3,3.9083536E2,1.4029844E3,2.8839944E2,3.1391678E2,1.9010516E3,2.9219308E2,2.1545027E3,1.4328989E2,3.957671E1,3.5125864E2,1.4648373E2,1.2565007E3,1.934301E1,2.6905643E2,1.4889005E2,1.6502672E2,3.4940826E2,1.5516433E3,1.3018161E2,1.6201149E2,1.3134469E3,8.410558E2,4.8279472E1,9.5010414E1,1.2420554E1,2.7156155E1,2.5648315E1,3.2561032E2,1.0111444E1,1.3637228E2,8.1269543E2,4.4380524E2,2.0592738E2,6.3129044E1,9.930404E1,6.572268E1,2.1738701E2,1.3202126E2,8.856863E2,6.659571E2,1.1761889E2,1.2562717E1,9.719749E1,6.4813995E1,5.6540512E1,1.2569064E3,7.674651E2,7.359071E1,2.4105312E1,2.4174162E1,5.4897053E1,4.0113365E1,1.1616742E1,1.5539412E1,1.1049367E1,1.4598948E1,2.7836264E2,4.724769E1,1.107888E2,2.558348E1,8.019935E2,1.0701913E1,2.224522E2,2.2135306E2,1.4849538E2,5.7432003E1,1.9794922E1,4.333412E1,1.11049866E2,1.0633714E2,6.8020584E1,6.400067E1,5.1853864E2,3.6714764E2,4.3795847E2,2.2799861E2,2.4117382E1,9.350151E1,8.597037E1,1.122712E1,4.055957E1,1.5980943E1,3.9323245E2,8.636739E2,1.1025896E2,6.572061E2,6.3198338E1,1.0392377E1,1.3668652E1,1.043666E1,1.3199158E1,1.0975005E1,3.9455734E1,1.5441318E1,1.9656155E1,2.045721E1],"tree_param":{"num_deleted":"0","num_feature":"9","num_nodes":"103","size_leaf_vector":"1"}},{"base_weights":[-3.6149628E-3,-2.9510647E-1,5.835722E-1,-9.971582E-2,-9.5902354E-1,6.832815E-1,2.7684453E-1,-3.375079E-1,1.13900356E-1,-6.9013256E-1,-1.3637129E0,8.3587766E-1,5.7636476E-1,4.193749E-1,-2.050436E-2,-1.8071865E-1,-4.1506627E-1,6.9271314E-1,3.8638607E-2,-8.240923E-1,-5.129129E-1,-1.5498999E0,-9.66008E-1,5.553059E-1,9.214223E-1,3.9710245E-1,5.987794E-1,3.0473557E-1,5.4027367E-1,-2.3400602E-1,3.0394736E-1,-4.7764495E-1,-1.3167115E-1,-6.3321745E-1,-3.8149807E-1,3.4680166E-3,7.324259E-1,1.2792267E-1,-7.201425E-2,-7.130881E-2,-7.835826E-1,-1.5839885E-1,-6.240427E-1,-8.772706E-2,-1.3386672E0,-2.471025E-2,-1.0373433E0,6.017983E-1,-8.095929E-3,1.3480973E0,8.685761E-1,2.7021343E-1,6.5130955E-1,6.449005E-1,5.2884865E-1,3.445264E-1,-1.0120568E-2,2.1642219E-1,5.900255E-1,4.5528024E-2,-4.3637443E-1,6.094195E-1,-7.531446E-2,-5.4742265E-2,-1.8377857E-2,-2.2179058E-3,-1.044222E-2,-2.619322E-2,-3.3012033E-2,-7.3079453E-3,-1.9719858E-2,4.7159247E-2,3.0812044E-2,8.866451E-3,-1.4840346E-3,1.6229166E-2,-5.1116883E-3,-4.4721924E-2,-3.500819E-2,2.3356356E-2,-1.5221461E-2,-2.3060067E-2,-3.863833E-2,-6.0644228E-2,-7.4795455E-2,-5.849422E-2,-3.399406E-2,8.275396E-3,3.1606425E-2,8.396219E-2,4.35287E-2,3.4185648E-2,4.544863E-2,-1.1076087E-2,1.7331956E-2,4.57204E-2,2.3745736E-2,3.162082E-2,5.193184E-2,2.009899E-2,2.958611E-2,1.1799226E-2,2.2718381E-2,2.2170586E-3,1.848629E-2,3.7146386E-2,2.0816034E-2,-7.1634734E-3,2.871508E-2,-2.806384E-2,-1.2574973E-2,3.667456E-2,1.0989947E-2,-1.6609108E-2,6.1886534E-3],"categories":[],"categories_nodes":[],"categories_segments":[],"categories_sizes":[],"default_left":[0,0,0,0,0,0,0,0,0,0,0,0,0,0,0,0,0,0,0,0,0,0,0,0,0,0,0,0,0,0,0,0,0,0,0,0,0,0,0,0,0,0,0,0,0,0,0,0,0,0,0,0,0,0,0,0,0,0,0,0,0,0,0,0,0,0,0,0,0,0,0,0,0,0,0,0,0,0,0,0,0,0,0,0,0,0,0,0,0,0,0,0,0,0,0,0,0,0,0,0,0,0,0,0,0,0,0,0,0,0,0,0,0,0,0],"id":1,"left_children":[1,3,5,7,9,11,13,15,17,19,21,23,25,27,29,31,33,35,37,39,41,43,45,47,49,51,53,55,57,59,61,63,65,67,69,-1,71,73,75,-1,77,79,81,-1,83,-1,85,87,-1,89,91,93,95,97,99,101,-1,103,105,107,109,111,113,-1,-1,-1,-1,-1,-1,-1,-1,-1,-1,-1,-1,-1,-1,-1,-1,-1,-1,-1,-1,-1,-1,-1,-1,-1,-1,-1,-1,-1,-1,-1,-1,-1,-1,-1,-1,-1,-1,-1,-1,-1,-1,-1,-1,-1,-1,-1,-1,-1,-1,-1,-1],"loss_changes":[1.1846355E3,5.998965E2,7.003186E1,1.8161519E2,1.1348718E2,2.7777222E1,2.3952156E1,2.0498245E1,8.20351E1,1.4624054E1,2.9510498E1,1.6562439E1,3.8675537E0,5.1290283E0,1.2817781E1,8.117296E0,8.041748E0,5.3136063E0,1.6489023E1,7.6461334E0,1.075489E1,9.90918E0,4.0707703E0,5.723934E0,1.108728E1,3.5825558E0,2.581604E0,4.0722294E0,2.8466759E0,6.329923E0,8.55711E0,4.982214E0,3.2482882E0,9.5401764E-2,2.9258423E0,0E0,4.4047318E0,7.1964893E0,8.96844E0,0E0,2.5075226E0,6.270559E0,4.7150955E0,0E0,1.0289001E0,0E0,4.766281E0,1.99506E0,0E0,7.7257156E0,3.0119324E0,3.0620198E0,1.3333645E0,2.004837E0,2.6791306E0,2.0898533E0,0E0,6.737889E-1,3.925438E0,4.8490105E0,1.3551226E0,1.8111343E0,1.7626679E0,0E0,0E0,0E0,0E0,0E0,0E0,0E0,0E0,0E0,0E0,0E0,0E0,0E0,0E0,0E0,0E0,0E0,0E0,0E0,0E0,0E0,0E0,0E0,0E0,0E0,0E0,0E0,0E0,0E0,0E0,0E0,0E0,0E0,0E0,0E0,0E0,0E0,0E0,0E0,0E0,0E0,0E0,0E0,0E0,0E0,0E0,0E0,0E0,0E0,0E0,0E0,0E0],"parents":[2147483647,0,0,1,1,2,2,3,3,4,4,5,5,6,6,7,7,8,8,9,9,10,10,11,11,12,12,13,13,14,14,15,15,16,16,17,17,18,18,19,19,20,20,21,21,22,22,23,23,24,24,25,25,26,26,27,27,28,28,29,29,30,30,31,31,32,32,33,33,34,34,36,36,37,37,38,38,40,40,41,41,42,42,44,44,46,46,47,47,49,49,50,50,51,51,52,52,53,53,54,54,55,55,57,57,58,58,59,59,60,60,61,61,62,62],"right_children":[2,4,6,8,10,12,14,16,18,20,22,24,26,28,30,32,34,36,38,40,42,44,46,48,50,52,54,56,58,60,62,64,66,68,70,-1,72,74,76,-1,78,80,82,-1,84,-1,86,88,-1,90,92,94,96,98,100,102,-1,104,106,108,110,112,114,-1,-1,-1,-1,-1,-1,-1,-1,-1,-1,-1,-1,-1,-1,-1,-1,-1,-1,-1,-1,-1,-1,-1,-1,-1,-1,-1,-1,-1,-1,-1,-1,-1,-1,-1,-1,-1,-1,-1,-1,-1,-1,-1,-1,-1,-1,-1,-1,-1,-1,-1,-1],"split_conditions":[2.44E2,1E0,2.1768E2,1.28E2,2E0,1.3261E2,1E0,1.3927E2,1.13E2,1.34E2,1.02E2,3.05E2,1.3624E2,3.75E2,3.58E2,2.2E1,1.7E1,1.38E2,1.85E2,2.978E1,1.84E2,8.498E1,1.88E2,3.04E2,1.165E1,4.09E2,1.6536E2,5.2767E2,2.3288E2,3.46E2,3.8409E2,6.716E1,1.2225E2,5E0,2.6E1,3.4680166E-3,1.68E2,2.0705E2,1.2266E2,-7.130881E-2,5E1,2.4426E2,1.587E2,-8.772706E-2,3E0,-2.471025E-2,1.83E2,3.814E1,-8.095929E-3,4.53E2,9.44E1,9.44E1,1.3386E2,8.3333336E-2,3.3E2,2.9667E2,-1.0120568E-2,4.31E2,4.4E2,3.01E2,3.18E2,1.6286E2,2.1506E2,-5.4742265E-2,-1.8377857E-2,-2.2179058E-3,-1.044222E-2,-2.619322E-2,-3.3012033E-2,-7.3079453E-3,-1.9719858E-2,4.7159247E-2,3.0812044E-2,8.866451E-3,-1.4840346E-3,1.6229166E-2,-5.1116883E-3,-4.4721924E-2,-3.500819E-2,2.3356356E-2,-1.5221461E-2,-2.3060067E-2,-3.863833E-2,-6.0644228E-2,-7.4795455E-2,-5.849422E-2,-3.399406E-2,8.275396E-3,3.1606425E-2,8.396219E-2,4.35287E-2,3.4185648E-2,4.544863E-2,-1.1076087E-2,1.7331956E-2,4.57204E-2,2.3745736E-2,3.162082E-2,5.193184E-2,2.009899E-2,2.958611E-2,1.1799226E-2,2.2718381E-2,2.2170586E-3,1.848629E-2,3.7146386E-2,2.0816034E-2,-7.1634734E-3,2.871508E-2,-2.806384E-2,-1.2574973E-2,3.667456E-2,1.0989947E-2,-1.6609108E-2,6.1886534E-3],"split_indices":[5,6,1,3,6,1,6,1,2,5,5,5,2,3,5,3,5,3,3,2,3,2,3,3,2,5,1,2,2,3,1,1,1,3,5,0,3,2,2,0,5,1,2,0,6,0,5,2,0,3,2,2,2,8,3,2,0,3,3,5,5,2,2,0,0,0,0,0,0,0,0,0,0,0,0,0,0,0,0,0,0,0,0,0,0,0,0,0,0,0,0,0,0,0,0,0,0,0,0,0,0,0,0,0,0,0,0,0,0,0,0,0,0,0,0],"split_type":[0,0,0,0,0,0,0,0,0,0,0,0,0,0,0,0,0,0,0,0,0,0,0,0,0,0,0,0,0,0,0,0,0,0,0,0,0,0,0,0,0,0,0,0,0,0,0,0,0,0,0,0,0,0,0,0,0,0,0,0,0,0,0,0,0,0,0,0,0,0,0,0,0,0,0,0,0,0,0,0,0,0,0,0,0,0,0,0,0,0,0,0,0,0,0,0,0,0,0,0,0,0,0,0,0,0,0,0,0,0,0,0,0,0,0],"sum_hessian":[6.9192075E3,4.624173E3,2.295035E3,3.5736104E3,1.0505626E3,1.7310782E3,5.6395654E2,1.6908354E3,1.8827748E3,6.3280695E2,4.177556E2,7.103781E2,1.0207002E3,3.8094507E2,1.8301147E2,5.606915E2,1.1301439E3,2.1569937E2,1.6670754E3,3.5831088E2,2.744961E2,2.8257153E2,1.3518407E2,1.6773323E2,5.4264484E2,1.15522095E2,9.051781E2,1.9734145E2,1.8360362E2,1.1054645E2,7.2465034E1,7.824846E1,4.8244308E2,1.4832884E2,9.8181506E2,1.3083312E1,2.0261606E2,9.2253796E2,7.445375E2,2.0431875E1,3.37879E2,6.608959E1,2.084065E2,1.3981418E2,1.4275737E2,1.8796173E1,1.163879E2,1.5767336E2,1.0059867E1,5.7101673E1,4.8554318E2,7.843417E1,3.708792E1,5.4048956E2,3.6468857E2,1.8328178E2,1.405967E1,2.516248E1,1.5844115E2,4.6747944E1,6.3798504E1,3.980095E1,3.266408E1,1.0490263E1,6.7758194E1,2.2709024E2,2.5535286E2,3.3431072E1,1.14897766E2,5.1658306E1,9.3015674E2,6.947356E1,1.331425E2,7.022635E2,2.2027448E2,5.2025097E1,6.925124E2,1.4090607E2,1.9697293E2,1.2092429E1,5.399716E1,1.0143929E2,1.069672E2,8.415375E1,5.8603626E1,8.324808E1,3.3139816E1,1.066841E1,1.4700494E2,3.2232773E1,2.48689E1,9.0288506E1,3.9525467E2,1.029513E1,6.8139046E1,1.3206358E1,2.3881561E1,5.26405E2,1.4084482E1,1.23294136E2,2.4139442E2,9.376968E1,8.95121E1,1.2462616E1,1.26998625E1,8.252355E1,7.5917595E1,3.49855E1,1.1762445E1,3.6859848E1,2.6938656E1,2.9518448E1,1.0282502E1,1.3970488E1,1.8693594E1],"tree_param":{"num_deleted":"0","num_feature":"9","num_nodes":"115","size_leaf_vector":"1"}},{"base_weights":[1.3342483E-3,-2.7521917E-1,5.563632E-1,-9.353226E-2,-1.0526208E0,6.123856E-1,-1.7960349E-1,-3.1091195E-1,1.0614546E-1,-8.094782E-1,-1.3369128E0,8.0446994E-1,5.1659834E-1,-2.703531E-1,3.7337065E-2,-1.6500181E-1,-3.8726115E-1,5.398824E-1,1.1330209E-2,-9.767716E-1,-7.090607E-1,-1.4641985E0,-9.050517E-1,1.2979243E0,7.58503E-1,3.87421E-1,5.624808E-1,-1.295705E-1,-6.118302E-1,-5.2616227E-1,-1.2512884E-1,-5.9118086E-1,-3.606415E-1,7.786415E-1,4.0332097E-1,1.07449934E-1,-1.1989012E-1,-6.934156E-2,-9.0833324E-1,-5.712489E-2,-6.811211E-1,-8.2990825E-2,-1.2765326E0,-6.034765E-1,-9.999695E-1,8.096664E-2,4.0507432E-2,6.446733E-1,8.312793E-1,4.9129E-1,2.6675078E-1,5.7889575E-1,2.2659409E-1,3.3759832E-2,-3.0946186E-1,-3.65402E-2,-1.9153701E-2,-4.515656E-2,-2.1387734E-2,-8.272451E-4,-1.0574983E-2,-2.6041213E-2,-3.4384876E-2,-2.745674E-2,-1.7111564E-2,4.9456548E-2,3.0466294E-2,1.8529622E-2,3.7641656E-2,1.0056765E-2,3.4311367E-4,-3.9842804E-3,-1.4841889E-2,-4.869535E-2,-3.3301618E-2,-2.6906595E-2,-3.9736185E-2,-5.866477E-2,-7.069937E-2,-3.7101857E-2,-2.028276E-2,-5.3426098E-2,-3.939588E-2,1.3068187E-2,3.3160903E-2,3.9004248E-2,5.51476E-2,5.971895E-3,2.6796697E-2,-3.0100765E-3,1.4736746E-2,2.0926202E-2,3.0594751E-2,4.252867E-3,2.6396677E-2,7.348433E-3,-1.7865377E-2,-2.5960071E-2,-1.936118E-3],"categories":[],"categories_nodes":[],"categories_segments":[],"categories_sizes":[],"default_left":[0,0,0,0,0,0,0,0,0,0,0,0,0,0,0,0,0,0,0,0,0,0,0,0,0,0,0,0,0,0,0,0,0,0,0,0,0,0,0,0,0,0,0,0,0,0,0,0,0,0,0,0,0,0,0,0,0,0,0,0,0,0,0,0,0,0,0,0,0,0,0,0,0,0,0,0,0,0,0,0,0,0,0,0,0,0,0,0,0,0,0,0,0,0,0,0,0,0,0],"id":2,"left_children":[1,3,5,7,9,11,13,15,17,19,21,23,25,27,-1,29,31,33,35,37,39,41,43,45,47,49,51,53,55,57,59,61,63,65,67,69,71,-1,73,-1,75,-1,77,79,81,-1,-1,83,85,87,89,91,93,95,97,-1,-1,-1,-1,-1,-1,-1,-1,-1,-1,-1,-1,-1,-1,-1,-1,-1,-1,-1,-1,-1,-1,-1,-1,-1,-1,-1,-1,-1,-1,-1,-1,-1,-1,-1,-1,-1,-1,-1,-1,-1,-1,-1,-1],"loss_changes":[1.0595984E3,6.506698E2,9.476422E1,1.621842E2,5.9243042E1,3.8840332E1,1.3918373E1,1.98638E1,8.009998E1,7.25235E0,2.0705627E1,1.507782E1,8.236511E0,7.1001186E0,0E0,8.808178E0,6.157379E0,1.1078293E1,2.0186817E1,3.6444244E0,2.845047E0,9.185486E0,2.0830765E0,7.9280624E0,4.850403E0,4.5951653E0,5.659973E0,3.1546788E0,8.992405E-1,1.8749733E0,5.213481E0,5.5140305E-1,3.4233093E0,3.889824E0,2.2872963E0,8.703577E0,4.7906837E0,0E0,1.7767715E0,0E0,4.178238E0,0E0,6.3253784E-1,3.839674E-1,1.7368317E-1,0E0,0E0,1.66082E0,4.607788E0,3.280346E0,1.6337051E0,5.040161E0,2.1124818E0,2.5755908E0,2.877235E0,0E0,0E0,0E0,0E0,0E0,0E0,0E0,0E0,0E0,0E0,0E0,0E0,0E0,0E0,0E0,0E0,0E0,0E0,0E0,0E0,0E0,0E0,0E0,0E0,0E0,0E0,0E0,0E0,0E0,0E0,0E0,0E0,0E0,0E0,0E0,0E0,0E0,0E0,0E0,0E0,0E0,0E0,0E0,0E0],"parents":[2147483647,0,0,1,1,2,2,3,3,4,4,5,5,6,6,7,7,8,8,9,9,10,10,11,11,12,12,13,13,15,15,16,16,17,17,18,18,19,19,20,20,21,21,22,22,23,23,24,24,25,25,26,26,27,27,28,28,29,29,30,30,31,31,32,32,33,33,34,34,35,35,36,36,38,38,40,40,42,42,43,43,44,44,47,47,48,48,49,49,50,50,51,51,52,52,53,53,54,54],"right_children":[2,4,6,8,10,12,14,16,18,20,22,24,26,28,-1,30,32,34,36,38,40,42,44,46,48,50,52,54,56,58,60,62,64,66,68,70,72,-1,74,-1,76,-1,78,80,82,-1,-1,84,86,88,90,92,94,96,98,-1,-1,-1,-1,-1,-1,-1,-1,-1,-1,-1,-1,-1,-1,-1,-1,-1,-1,-1,-1,-1,-1,-1,-1,-1,-1,-1,-1,-1,-1,-1,-1,-1,-1,-1,-1,-1,-1,-1,-1,-1,-1,-1,-1],"split_conditions":[2.44E2,1.6E1,1.2E1,1.31E2,3E0,1.3386E2,4.44E2,1.4125E2,1.2307E2,7.4E1,1.3E2,1.165E1,3.14E2,1.12E2,3.7337065E-2,1.5E1,1.5E1,1.0353E2,1.88E2,2.0271E2,6.716E1,8.498E1,7.7E1,4.53E2,3.44E2,1.7158E2,4.3408E2,3.3736E2,3E0,1.0234E2,1.2225E2,2.1229E2,1.4776E2,1.7E2,2.31E2,1.6872E2,2.7136E2,-6.934156E-2,2.61E2,-5.712489E-2,1.5719E2,-8.2990825E-2,4E0,1.65E2,1.93E2,8.096664E-2,4.0507432E-2,3.814E1,1.2655E2,1.3636E2,2.49E2,1.4061E2,4.36E2,7.9E1,2.0046E2,-3.65402E-2,-1.9153701E-2,-4.515656E-2,-2.1387734E-2,-8.272451E-4,-1.0574983E-2,-2.6041213E-2,-3.4384876E-2,-2.745674E-2,-1.7111564E-2,4.9456548E-2,3.0466294E-2,1.8529622E-2,3.7641656E-2,1.0056765E-2,3.4311367E-4,-3.9842804E-3,-1.4841889E-2,-4.869535E-2,-3.3301618E-2,-2.6906595E-2,-3.9736185E-2,-5.866477E-2,-7.069937E-2,-3.7101857E-2,-2.028276E-2,-5.3426098E-2,-3.939588E-2,1.3068187E-2,3.3160903E-2,3.9004248E-2,5.51476E-2,5.971895E-3,2.6796697E-2,-3.0100765E-3,1.4736746E-2,2.0926202E-2,3.0594751E-2,4.252867E-3,2.6396677E-2,7.348433E-3,-1.7865377E-2,-2.5960071E-2,-1.936118E-3],"split_indices":[5,4,4,3,0,1,5,1,1,5,5,7,5,4,0,3,3,1,3,1,1,7,4,3,3,7,7,1,0,7,1,1,1,5,3,1,1,0,3,0,7,0,0,5,5,0,0,7,7,1,5,7,3,4,7,0,0,0,0,0,0,0,0,0,0,0,0,0,0,0,0,0,0,0,0,0,0,0,0,0,0,0,0,0,0,0,0,0,0,0,0,0,0,0,0,0,0,0,0],"split_type":[0,0,0,0,0,0,0,0,0,0,0,0,0,0,0,0,0,0,0,0,0,0,0,0,0,0,0,0,0,0,0,0,0,0,0,0,0,0,0,0,0,0,0,0,0,0,0,0,0,0,0,0,0,0,0,0,0,0,0,0,0,0,0,0,0,0,0,0,0,0,0,0,0,0,0,0,0,0,0,0,0,0,0,0,0,0,0,0,0,0,0,0,0,0,0,0,0,0,0],"sum_hessian":[6.9011416E3,4.6064146E3,2.294727E3,3.734697E3,8.7171765E2,2.1325625E3,1.6216444E2,1.7878223E3,1.9468746E3,4.719375E2,3.9978015E2,7.0713336E2,1.4254292E3,1.483404E2,1.3824055E1,6.1522797E2,1.1725942E3,3.4840143E2,1.5984733E3,1.7374869E2,2.981888E2,3.0692682E2,9.2853325E1,5.793767E1,6.491957E2,3.7607443E2,1.0493547E3,1.060132E2,4.2327194E1,5.9956806E1,5.552712E2,1.329468E2,1.0396475E3,1.2505609E2,2.2334534E2,9.227409E2,6.7573236E2,2.2095564E1,1.5165312E2,1.564173E1,2.8254706E2,1.4643854E2,1.6048828E2,2.3989893E1,6.8863434E1,3.3526405E1,2.4411266E1,2.5703085E2,3.921648E2,2.0045659E2,1.7561783E2,9.99772E2,4.958277E1,5.599002E1,5.0023174E1,2.64014E1,1.5925796E1,1.0718833E1,4.9237976E1,2.4652972E2,3.0874142E2,8.059363E1,5.2353172E1,8.994255E1,9.4970496E2,5.3590996E1,7.1465096E1,2.0610579E2,1.7239548E1,4.7724484E2,4.4549603E2,5.518061E2,1.2392628E2,1.16976456E2,3.4676674E1,1.276339E2,1.5491316E2,9.709764E1,6.3390648E1,1.2490258E1,1.1499635E1,4.8987663E1,1.9875769E1,1.2557972E1,2.444729E2,3.3324E2,5.8924812E1,2.1880747E1,1.7857585E2,1.3755414E1,1.6186241E2,1.7294893E2,8.2682306E2,3.4609314E1,1.4973457E1,4.390445E1,1.2085572E1,2.766986E1,2.2353315E1],"tree_param":{"num_deleted":"0","num_feature":"9","num_nodes":"99","size_leaf_vector":"1"}},{"base_weights":[5.829914E-4,-2.6344943E-1,5.2010053E-1,-8.48552E-2,-9.8796666E-1,5.713852E-1,-1.2638016E-1,-3.004001E-1,1.09696195E-1,-8.4504986E-1,-1.4378748E0,1.3322915E0,5.5032927E-1,-3.1461865E-1,3.2723585E-1,-8.636969E-2,-3.389916E-1,5.005802E-1,2.342015E-2,-1.0376426E0,-7.178985E-1,-1.5439984E0,-1.0330386E0,8.022609E-2,4.673588E-2,6.301841E-1,4.2017198E-1,-2.0907244E-2,-4.619666E-1,6.7655104E-1,-4.34182E-3,-4.4755983E-1,-3.544089E-2,-5.3123254E-1,-3.149194E-1,6.3736796E-1,3.2627743E-1,1.05818935E-1,-9.0933606E-2,-7.198083E-2,-9.494679E-1,-5.854273E-1,-8.241396E-1,-8.170662E-2,-6.733923E-2,-5.611509E-2,-3.594721E-2,3.0911183E-1,6.4518714E-1,3.1541997E-1,5.38839E-1,-3.0888325E-1,2.3768336E-2,-5.357519E-1,-1.1211182E-2,8.509544E-3,6.1773997E-2,1.1529846E-2,-1.4231403E-2,-4.6882823E-2,-9.301989E-3,2.4518145E-2,-3.7335013E-3,-2.50076E-2,-4.0776886E-2,-1.3792436E-2,-1.979666E-2,7.380523E-3,3.3808425E-2,7.0770504E-3,2.954783E-2,7.2164843E-3,-6.0665174E-3,-1.6836189E-3,-1.0112079E-2,-4.0927406E-2,-5.7583876E-2,-3.068015E-2,-7.86031E-3,-6.3925646E-2,-3.8104884E-2,2.4618289E-2,8.15802E-3,3.6711212E-2,2.959016E-2,1.6809044E-2,-7.8268E-3,4.4197444E-2,2.5834057E-2,-1.9722693E-3,-3.1837173E-2,-2.9829476E-2,-1.1930407E-2],"categories":[],"categories_nodes":[],"categories_segments":[],"categories_sizes":[],"default_left":[0,0,0,0,0,0,0,0,0,0,0,0,0,0,0,0,0,0,0,0,0,0,0,0,0,0,0,0,0,0,0,0,0,0,0,0,0,0,0,0,0,0,0,0,0,0,0,0,0,0,0,0,0,0,0,0,0,0,0,0,0,0,0,0,0,0,0,0,0,0,0,0,0,0,0,0,0,0,0,0,0,0,0,0,0,0,0,0,0,0,0,0,0],"id":3,"left_children":[1,3,5,7,9,11,13,15,17,19,21,23,25,27,29,31,33,35,37,39,41,43,45,-1,-1,47,49,51,53,55,57,59,61,63,65,67,69,71,73,-1,75,77,79,-1,-1,-1,-1,81,83,85,87,89,-1,91,-1,-1,-1,-1,-1,-1,-1,-1,-1,-1,-1,-1,-1,-1,-1,-1,-1,-1,-1,-1,-1,-1,-1,-1,-1,-1,-1,-1,-1,-1,-1,-1,-1,-1,-1,-1,-1,-1,-1],"loss_changes":[9.442932E2,5.9052405E2,7.69823E1,1.5363333E2,5.6817383E1,3.370404E1,1.4731325E1,1.4325699E1,6.493771E1,1.6087921E1,7.69162E0,4.6882553E0,2.1491821E1,5.252219E0,5.879051E0,4.892594E0,6.6451263E0,8.093491E0,1.4885446E1,8.242096E0,5.3902283E0,8.0752563E-1,5.3655624E-1,0E0,0E0,6.040161E0,9.761322E0,6.101503E0,1.2993317E0,6.783676E0,1.8449532E0,4.040962E0,4.882839E0,1.0268364E0,4.039612E0,3.5873947E0,7.5022736E0,8.048182E0,4.2106433E0,0E0,5.02092E0,2.1858978E0,5.484329E0,0E0,0E0,0E0,0E0,1.5176163E0,5.443054E0,4.2341194E0,2.3969269E0,2.357561E0,0E0,9.6097183E-1,0E0,0E0,0E0,0E0,0E0,0E0,0E0,0E0,0E0,0E0,0E0,0E0,0E0,0E0,0E0,0E0,0E0,0E0,0E0,0E0,0E0,0E0,0E0,0E0,0E0,0E0,0E0,0E0,0E0,0E0,0E0,0E0,0E0,0E0,0E0,0E0,0E0,0E0,0E0],"parents":[2147483647,0,0,1,1,2,2,3,3,4,4,5,5,6,6,7,7,8,8,9,9,10,10,11,11,12,12,13,13,14,14,15,15,16,16,17,17,18,18,19,19,20,20,21,21,22,22,25,25,26,26,27,27,28,28,29,29,30,30,31,31,32,32,33,33,34,34,35,35,36,36,37,37,38,38,40,40,41,41,42,42,47,47,48,48,49,49,50,50,51,51,53,53],"right_children":[2,4,6,8,10,12,14,16,18,20,22,24,26,28,30,32,34,36,38,40,42,44,46,-1,-1,48,50,52,54,56,58,60,62,64,66,68,70,72,74,-1,76,78,80,-1,-1,-1,-1,82,84,86,88,90,-1,92,-1,-1,-1,-1,-1,-1,-1,-1,-1,-1,-1,-1,-1,-1,-1,-1,-1,-1,-1,-1,-1,-1,-1,-1,-1,-1,-1,-1,-1,-1,-1,-1,-1,-1,-1,-1,-1,-1,-1],"split_conditions":[2.41E2,1.1E1,1E1,1.28E2,3E0,1.165E1,3.75E2,1.2225E2,1.2307E2,7.4E1,1.12E2,4.46E2,1.6733E2,4.9E1,2.9099E2,2.978E1,1.5E1,1.1155E2,1.87E2,9.05E1,7.6E1,9.05E1,1.86E2,8.022609E-2,4.673588E-2,2.52E2,3.73E2,2.5E1,3.25E2,4.75E2,4.75E2,3.8E1,5.092E1,3.3737E2,1.9581E2,1.4E2,1.1856E2,2.9447E2,1.8944E2,-7.198083E-2,4.4879E2,2.18E2,1.4873E2,-8.170662E-2,-6.733923E-2,-5.611509E-2,-3.594721E-2,2.46E2,1.2307E2,5.2989E2,3.8E2,1.7793E2,2.3768336E-2,1.8E2,-1.1211182E-2,8.509544E-3,6.1773997E-2,1.1529846E-2,-1.4231403E-2,-4.6882823E-2,-9.301989E-3,2.4518145E-2,-3.7335013E-3,-2.50076E-2,-4.0776886E-2,-1.3792436E-2,-1.979666E-2,7.380523E-3,3.3808425E-2,7.0770504E-3,2.954783E-2,7.2164843E-3,-6.0665174E-3,-1.6836189E-3,-1.0112079E-2,-4.0927406E-2,-5.7583876E-2,-3.068015E-2,-7.86031E-3,-6.3925646E-2,-3.8104884E-2,2.4618289E-2,8.15802E-3,3.6711212E-2,2.959016E-2,1.6809044E-2,-7.8268E-3,4.4197444E-2,2.5834057E-2,-1.9722693E-3,-3.1837173E-2,-2.9829476E-2,-1.1930407E-2],"split_indices":[5,4,4,5,6,7,5,1,1,5,5,5,1,4,1,7,3,1,3,7,4,7,5,0,0,5,3,4,5,3,3,5,7,7,1,3,1,1,7,0,1,5,1,0,0,0,0,5,1,1,5,7,0,4,0,0,0,0,0,0,0,0,0,0,0,0,0,0,0,0,0,0,0,0,0,0,0,0,0,0,0,0,0,0,0,0,0,0,0,0,0,0,0],"split_type":[0,0,0,0,0,0,0,0,0,0,0,0,0,0,0,0,0,0,0,0,0,0,0,0,0,0,0,0,0,0,0,0,0,0,0,0,0,0,0,0,0,0,0,0,0,0,0,0,0,0,0,0,0,0,0,0,0,0,0,0,0,0,0,0,0,0,0,0,0,0,0,0,0,0,0,0,0,0,0,0,0,0,0,0,0,0,0,0,0,0,0,0,0],"sum_hessian":[6.882136E3,4.563393E3,2.3187432E3,3.6618582E3,9.015347E2,2.1484268E3,1.7031648E2,1.7369426E3,1.9249156E3,6.8637933E2,2.1515543E2,5.617393E1,2.0922527E3,1.2058385E2,4.973264E1,2.658367E2,1.471106E3,3.471787E2,1.5777369E3,2.7010223E2,4.162771E2,1.6823933E2,4.69161E1,3.1541069E1,2.463286E1,1.2943154E3,7.9793726E2,4.0665817E1,7.991803E1,2.3711895E1,2.6020746E1,3.1889128E1,2.3394759E2,1.6136613E2,1.3097397E3,1.930343E2,1.541444E2,9.1703357E2,6.6070337E2,4.583249E1,2.2426973E2,1.8816551E2,2.2811159E2,1.1046615E2,5.7773186E1,3.452985E1,1.2386247E1,5.8745018E1,1.2355704E3,4.257601E2,3.7217715E2,2.5972301E1,1.4693516E1,6.0032883E1,1.9885147E1,1.3125436E1,1.0586459E1,1.4251923E1,1.1768824E1,1.0196036E1,2.1693092E1,1.5444106E1,2.1850348E2,1.4795114E2,1.3414986E1,8.865745E2,4.2316528E2,1.4522998E1,1.785113E2,9.16858E1,6.24586E1,7.844098E2,1.3262373E2,4.3712927E2,2.2357411E2,1.3919588E2,8.507385E1,1.7614291E2,1.2022597E1,2.504963E1,2.0306197E2,2.4992012E1,3.3753006E1,4.5835065E2,7.772198E2,4.0809604E2,1.7664062E1,2.0107542E1,3.520696E2,1.48712845E1,1.1101017E1,4.8994034E1,1.1038846E1],"tree_param":{"num_deleted":"0","num_feature":"9","num_nodes":"93","size_leaf_vector":"1"}},{"base_weights":[-1.9343117E-3,-2.5338066E-1,5.043121E-1,-8.6896405E-2,-9.638838E-1,5.526471E-1,-9.6892916E-2,-2.8387034E-1,8.714804E-2,-8.2880247E-1,-1.3822742E0,7.3225856E-1,4.6562153E-1,-1.9799963E-1,5.077122E-1,-9.877932E-2,-3.3511135E-1,5.977256E-1,2.2012094E-2,-9.7188246E-1,-6.6506326E-1,-1.4286602E0,-2.253784E-2,1.2462512E0,6.8484163E-1,3.395247E-1,5.2037203E-1,9.777354E-3,-3.455619E-1,4.481854E-2,-6.453166E-4,-5.3139204E-1,-5.4274745E-2,-2.8356415E-1,-4.2343146E-1,1.5699024E-3,6.465168E-1,8.868986E-2,-1.2974136E-1,-1.3219076E0,-9.002164E-1,-1.0179386E0,-6.290741E-1,-7.718136E-2,-1.2360357E0,7.293778E-2,3.1001994E-2,6.6501933E-1,5.559045E-2,4.1239125E-1,1.9141911E-1,5.641959E-1,4.288496E-1,2.3284627E-1,-2.6375163E-1,-2.7487248E-2,-2.699081E-1,-4.211251E-2,-1.0047458E-2,-3.294977E-4,-2.1497125E-2,-2.3793569E-2,-1.2891794E-2,-2.8384252E-2,-1.8344007E-2,3.8069054E-2,2.6388446E-2,7.863698E-3,-7.0524984E-4,-5.622487E-3,-2.9461091E-2,-5.238926E-2,-7.1524665E-2,-4.130776E-2,-5.408439E-2,-3.329138E-2,-6.0202416E-2,-1.3647677E-2,-3.3966426E-2,-4.3407094E-2,-6.4765245E-2,2.5239576E-2,3.5653867E-2,7.741193E-3,2.2175374E-2,1.1424468E-2,-1.2908192E-2,2.0503258E-2,3.0579766E-2,1.3029157E-2,2.5311688E-2,1.9516012E-2,-7.0137563E-3,-2.2024406E-2,1.5860706E-3,-7.42422E-3,-2.0839633E-2],"categories":[],"categories_nodes":[],"categories_segments":[],"categories_sizes":[],"default_left":[0,0,0,0,0,0,0,0,0,0,0,0,0,0,0,0,0,0,0,0,0,0,0,0,0,0,0,0,0,0,0,0,0,0,0,0,0,0,0,0,0,0,0,0,0,0,0,0,0,0,0,0,0,0,0,0,0,0,0,0,0,0,0,0,0,0,0,0,0,0,0,0,0,0,0,0,0,0,0,0,0,0,0,0,0,0,0,0,0,0,0,0,0,0,0,0,0],"id":4,"left_children":[1,3,5,7,9,11,13,15,17,19,21,23,25,27,29,31,33,35,37,39,41,43,-1,45,47,49,51,53,55,-1,-1,57,59,61,63,-1,65,67,69,71,73,75,77,-1,79,-1,-1,81,-1,83,85,87,89,91,93,-1,95,-1,-1,-1,-1,-1,-1,-1,-1,-1,-1,-1,-1,-1,-1,-1,-1,-1,-1,-1,-1,-1,-1,-1,-1,-1,-1,-1,-1,-1,-1,-1,-1,-1,-1,-1,-1,-1,-1,-1,-1],"loss_changes":[8.7703345E2,5.4443945E2,6.649603E1,1.2791774E2,4.823816E1,3.2740845E1,1.0553391E1,1.6566742E1,6.588016E1,1.4886932E1,8.506134E0,1.5939423E1,9.684998E0,4.517033E0,5.0253963E0,7.3047967E0,6.1186523E0,6.1728134E0,1.7802097E1,7.6316223E0,3.3265228E0,2.5489502E0,0E0,6.6774063E0,4.6184387E0,4.619076E0,3.7452393E0,3.8509333E0,1.1817636E0,0E0,0E0,3.4687347E0,6.204024E0,4.1736374E0,3.895111E0,0E0,2.4120789E0,8.618115E0,4.201188E0,2.1658325E-1,3.0716553E0,9.8672867E-1,4.9342422E0,0E0,6.2511444E-1,0E0,0E0,4.317566E0,0E0,2.262825E0,2.4825258E0,4.6371E0,4.113617E0,2.0959735E0,1.4953258E0,0E0,1.0937319E0,0E0,0E0,0E0,0E0,0E0,0E0,0E0,0E0,0E0,0E0,0E0,0E0,0E0,0E0,0E0,0E0,0E0,0E0,0E0,0E0,0E0,0E0,0E0,0E0,0E0,0E0,0E0,0E0,0E0,0E0,0E0,0E0,0E0,0E0,0E0,0E0,0E0,0E0,0E0,0E0],"parents":[2147483647,0,0,1,1,2,2,3,3,4,4,5,5,6,6,7,7,8,8,9,9,10,10,11,11,12,12,13,13,14,14,15,15,16,16,17,17,18,18,19,19,20,20,21,21,23,23,24,24,25,25,26,26,27,27,28,28,31,31,32,32,33,33,34,34,36,36,37,37,38,38,39,39,40,40,41,41,42,42,44,44,47,47,49,49,50,50,51,51,52,52,53,53,54,54,56,56],"right_children":[2,4,6,8,10,12,14,16,18,20,22,24,26,28,30,32,34,36,38,40,42,44,-1,46,48,50,52,54,56,-1,-1,58,60,62,64,-1,66,68,70,72,74,76,78,-1,80,-1,-1,82,-1,84,86,88,90,92,94,-1,96,-1,-1,-1,-1,-1,-1,-1,-1,-1,-1,-1,-1,-1,-1,-1,-1,-1,-1,-1,-1,-1,-1,-1,-1,-1,-1,-1,-1,-1,-1,-1,-1,-1,-1,-1,-1,-1,-1,-1,-1],"split_conditions":[2.44E2,1.6E1,1E1,1.28E2,4E0,1.3261E2,4.27E2,1.2903E2,1.1347E2,1.05E2,1.82E2,1.165E1,3.22E2,5.4E1,1.4106E2,2.978E1,1.9581E2,1.4E2,1.8944E2,7.523E1,6.082E1,1.0091E2,-2.253784E-2,4.79E2,1.2915E2,2.0661E2,2.0835E2,3.6392E2,2.73E2,4.481854E-2,-6.453166E-4,6.4E1,1.21E2,1.7E1,2.254E2,1.5699024E-3,9.876E1,1.88E2,3E0,8.8E1,3E0,1.17E2,2.5588E2,-7.718136E-2,9.2E1,7.293778E-2,3.1001994E-2,3.02E2,5.559045E-2,1.3624E2,5.2989E2,1.4061E2,3.75E2,4.08E2,2.8E1,-2.7487248E-2,1.12E2,-4.211251E-2,-1.0047458E-2,-3.294977E-4,-2.1497125E-2,-2.3793569E-2,-1.2891794E-2,-2.8384252E-2,-1.8344007E-2,3.8069054E-2,2.6388446E-2,7.863698E-3,-7.0524984E-4,-5.622487E-3,-2.9461091E-2,-5.238926E-2,-7.1524665E-2,-4.130776E-2,-5.408439E-2,-3.329138E-2,-6.0202416E-2,-1.3647677E-2,-3.3966426E-2,-4.3407094E-2,-6.4765245E-2,2.5239576E-2,3.5653867E-2,7.741193E-3,2.2175374E-2,1.1424468E-2,-1.2908192E-2,2.0503258E-2,3.0579766E-2,1.3029157E-2,2.5311688E-2,1.9516012E-2,-7.0137563E-3,-2.2024406E-2,1.5860706E-3,-7.42422E-3,-2.0839633E-2],"split_indices":[5,4,4,5,0,1,5,1,1,5,5,2,5,4,2,2,1,5,2,2,2,2,0,3,2,1,1,1,5,0,0,3,3,5,1,0,1,3,4,4,0,4,1,0,4,0,0,3,0,2,1,2,3,3,4,0,4,0,0,0,0,0,0,0,0,0,0,0,0,0,0,0,0,0,0,0,0,0,0,0,0,0,0,0,0,0,0,0,0,0,0,0,0,0,0,0,0],"split_type":[0,0,0,0,0,0,0,0,0,0,0,0,0,0,0,0,0,0,0,0,0,0,0,0,0,0,0,0,0,0,0,0,0,0,0,0,0,0,0,0,0,0,0,0,0,0,0,0,0,0,0,0,0,0,0,0,0,0,0,0,0,0,0,0,0,0,0,0,0,0,0,0,0,0,0,0,0,0,0,0,0,0,0,0,0,0,0,0,0,0,0,0,0,0,0,0,0],"sum_hessian":[6.887832E3,4.6023843E3,2.285448E3,3.7295928E3,8.727914E2,2.115453E3,1.6999506E2,1.7492532E3,1.9803396E3,6.6202966E2,2.107617E2,6.880261E2,1.4274268E3,1.4621619E2,2.3778877E1,3.79904E2,1.3693491E3,2.231296E2,1.75721E3,3.5066934E2,3.1136035E2,2.0025601E2,1.0505695E1,5.5975605E1,6.3205054E2,4.3432565E2,9.931011E2,6.110717E1,8.510902E1,1.3201666E1,1.0577212E1,3.441623E1,3.4548776E2,8.6734326E2,5.0200586E2,1.7829014E1,2.0530057E2,1.2210972E3,5.3611285E2,5.663112E1,2.940382E2,2.6291008E1,2.8506934E2,1.21015045E2,7.924096E1,4.0800495E1,1.517511E1,6.0645294E2,2.5597605E1,2.899088E2,1.4441681E2,6.680523E2,3.250488E2,3.3740105E1,2.7367065E1,2.1315016E1,6.3794E1,1.6935558E1,1.7480669E1,3.074763E2,3.8011475E1,1.0028239E2,7.670609E2,1.3883112E2,3.6317474E2,1.0160593E2,1.0369465E2,7.3210876E2,4.8898837E2,5.1786865E2,1.8244192E1,1.908948E1,3.754164E1,2.1276013E2,8.127809E1,1.0673965E1,1.5617042E1,3.604846E1,2.4902089E2,1.3165829E1,6.6075134E1,1.4258183E2,4.638711E2,3.1892385E1,2.5801645E2,1.3387035E2,1.0546469E1,1.5939445E2,5.0865784E2,1.0377174E2,2.2127705E2,2.3694056E1,1.0046049E1,1.6817142E1,1.0549923E1,3.602469E1,2.7769308E1],"tree_param":{"num_deleted":"0","num_feature":"9","num_nodes":"97","size_leaf_vector":"1"}},{"base_weights":[8.850659E-3,-2.3173265E-1,4.8241034E-1,-7.1441315E-2,-9.1282904E-1,5.3609014E-1,-7.281899E-2,-2.5739872E-1,1.04145855E-1,-7.771945E-1,-1.3310606E0,7.352953E-1,4.7097203E-1,-1.8057923E-1,4.7408643E-1,-4.8639065E-1,-2.2607245E-1,6.00704E-1,4.3569107E-2,-1.1901487E0,-7.295225E-1,-1.4374794E0,-9.943867E-1,1.1452436E0,6.8165994E-1,3.605858E-1,5.215156E-1,-1.9572666E-2,-3.8419646E-1,8.093882E-1,-6.758439E-3,-3.6458373E-2,-4.6154216E-1,-2.2837244E-2,-2.6361844E-1,7.052046E-1,4.8766473E-1,1.2038716E-1,-6.340814E-2,-3.659406E-2,-6.49037E-2,-8.2254905E-1,-5.723907E-1,-7.601424E-2,-1.2506119E0,-5.4147482E-2,-3.186923E-2,6.605911E-2,3.112793E-2,4.6709433E-1,7.310197E-1,4.151436E-1,1.9581676E-1,5.898382E-1,4.5286247E-1,2.0995243E-1,-2.3639446E-1,-5.7632136E-1,-2.2230594E-1,2.7160948E-2,5.0005198E-2,-1.33702075E-2,-2.4871614E-2,-2.6360918E-2,2.2566863E-3,-1.131274E-2,-1.7102826E-2,3.0500261E-2,5.5155333E-2,3.854961E-2,2.1647928E-2,1.0847099E-2,1.9192825E-3,-2.4369806E-3,-2.3575561E-2,-3.7489846E-2,-4.9993567E-2,-2.2058237E-2,-3.4004476E-2,-5.1710326E-2,-6.981131E-2,3.2430578E-3,2.9147064E-2,3.5132255E-2,4.757772E-2,1.3389303E-2,2.3590527E-2,-3.5300914E-3,1.1491814E-2,1.9421173E-2,3.0742114E-2,2.196136E-2,2.9102726E-2,2.345934E-3,2.6229266E-2,-1.8527275E-2,1.2247755E-2,-3.648896E-2,-9.822965E-3,-3.5516575E-3,-3.20088E-2],"categories":[],"categories_nodes":[],"categories_segments":[],"categories_sizes":[],"default_left":[0,0,0,0,0,0,0,0,0,0,0,0,0,0,0,0,0,0,0,0,0,0,0,0,0,0,0,0,0,0,0,0,0,0,0,0,0,0,0,0,0,0,0,0,0,0,0,0,0,0,0,0,0,0,0,0,0,0,0,0,0,0,0,0,0,0,0,0,0,0,0,0,0,0,0,0,0,0,0,0,0,0,0,0,0,0,0,0,0,0,0,0,0,0,0,0,0,0,0,0,0],"id":5,"left_children":[1,3,5,7,9,11,13,15,17,19,21,23,25,27,29,31,33,35,37,39,41,43,45,47,49,51,53,55,57,59,-1,-1,61,63,65,67,69,71,73,-1,-1,75,77,-1,79,-1,-1,-1,-1,81,83,85,87,89,91,93,95,97,99,-1,-1,-1,-1,-1,-1,-1,-1,-1,-1,-1,-1,-1,-1,-1,-1,-1,-1,-1,-1,-1,-1,-1,-1,-1,-1,-1,-1,-1,-1,-1,-1,-1,-1,-1,-1,-1,-1,-1,-1,-1,-1],"loss_changes":[7.796E2,4.9531897E2,6.8744934E1,1.199962E2,4.7997803E1,2.6921997E1,1.2114275E1,1.2692528E1,5.6840187E1,1.2028107E1,6.104126E0,1.0566925E1,8.666473E0,5.6060367E0,7.0288615E0,9.5383453E-1,1.1987869E1,2.0833054E0,1.3863116E1,2.3248215E0,8.151703E0,5.3616333E-1,1.008995E0,4.5332413E0,4.5181885E0,4.428528E0,4.8283997E0,4.860706E0,2.221918E0,5.7304E-1,0E0,0E0,1.2379684E0,8.464067E0,3.8105469E0,3.286644E0,1.2463436E0,7.7643814E0,4.199383E0,0E0,0E0,4.000702E0,2.846611E0,0E0,2.5784302E-1,0E0,0E0,0E0,0E0,4.0900135E0,1.6546173E0,3.0133057E0,1.1644382E0,2.4866638E0,7.064514E-1,2.4114664E0,3.3312614E0,1.8341398E0,2.6494253E0,0E0,0E0,0E0,0E0,0E0,0E0,0E0,0E0,0E0,0E0,0E0,0E0,0E0,0E0,0E0,0E0,0E0,0E0,0E0,0E0,0E0,0E0,0E0,0E0,0E0,0E0,0E0,0E0,0E0,0E0,0E0,0E0,0E0,0E0,0E0,0E0,0E0,0E0,0E0,0E0,0E0,0E0],"parents":[2147483647,0,0,1,1,2,2,3,3,4,4,5,5,6,6,7,7,8,8,9,9,10,10,11,11,12,12,13,13,14,14,15,15,16,16,17,17,18,18,19,19,20,20,21,21,22,22,23,23,24,24,25,25,26,26,27,27,28,28,29,29,32,32,33,33,34,34,35,35,36,36,37,37,38,38,41,41,42,42,44,44,49,49,50,50,51,51,52,52,53,53,54,54,55,55,56,56,57,57,58,58],"right_children":[2,4,6,8,10,12,14,16,18,20,22,24,26,28,30,32,34,36,38,40,42,44,46,48,50,52,54,56,58,60,-1,-1,62,64,66,68,70,72,74,-1,-1,76,78,-1,80,-1,-1,-1,-1,82,84,86,88,90,92,94,96,98,100,-1,-1,-1,-1,-1,-1,-1,-1,-1,-1,-1,-1,-1,-1,-1,-1,-1,-1,-1,-1,-1,-1,-1,-1,-1,-1,-1,-1,-1,-1,-1,-1,-1,-1,-1,-1,-1,-1,-1,-1,-1,-1],"split_conditions":[2.41E2,1.5E1,2E0,1.32E2,4E0,1.2149E2,4.28E2,1.7E1,1.1274E2,6.082E1,1.02E2,1.165E1,3.22E2,3.526E2,1.5776E2,1.0991E2,1.2225E2,9.876E1,1.6837E2,6E1,1.34E2,9.05E1,1.86E2,4.77E2,8.4E1,2.1243E2,1.6419E2,5.6E1,1.9439E2,1.5E1,-6.758439E-3,-3.6458373E-2,1.3482E2,2.564E1,1.9782E2,8.498E1,1.55E2,1.77E2,2E0,-3.659406E-2,-6.49037E-2,3E0,1.587E2,-7.601424E-2,5E0,-5.4147482E-2,-3.186923E-2,6.605911E-2,3.112793E-2,3.03E2,1.201E2,1.3689E2,2.49E2,1.2667E2,6E-1,2.6E1,3.51E2,3.4E2,1.08E2,2.7160948E-2,5.0005198E-2,-1.33702075E-2,-2.4871614E-2,-2.6360918E-2,2.2566863E-3,-1.131274E-2,-1.7102826E-2,3.0500261E-2,5.5155333E-2,3.854961E-2,2.1647928E-2,1.0847099E-2,1.9192825E-3,-2.4369806E-3,-2.3575561E-2,-3.7489846E-2,-4.9993567E-2,-2.2058237E-2,-3.4004476E-2,-5.1710326E-2,-6.981131E-2,3.2430578E-3,2.9147064E-2,3.5132255E-2,4.757772E-2,1.3389303E-2,2.3590527E-2,-3.5300914E-3,1.1491814E-2,1.9421173E-2,3.0742114E-2,2.196136E-2,2.9102726E-2,2.345934E-3,2.6229266E-2,-1.8527275E-2,1.2247755E-2,-3.648896E-2,-9.822965E-3,-3.5516575E-3,-3.20088E-2],"split_indices":[5,4,4,5,0,1,5,5,1,7,5,7,5,1,7,7,1,1,7,4,5,7,5,5,1,7,1,4,7,4,0,0,1,1,1,7,5,5,4,0,0,0,7,0,0,0,0,0,0,5,1,7,5,1,8,4,5,5,4,0,0,0,0,0,0,0,0,0,0,0,0,0,0,0,0,0,0,0,0,0,0,0,0,0,0,0,0,0,0,0,0,0,0,0,0,0,0,0,0,0,0],"split_type":[0,0,0,0,0,0,0,0,0,0,0,0,0,0,0,0,0,0,0,0,0,0,0,0,0,0,0,0,0,0,0,0,0,0,0,0,0,0,0,0,0,0,0,0,0,0,0,0,0,0,0,0,0,0,0,0,0,0,0,0,0,0,0,0,0,0,0,0,0,0,0,0,0,0,0,0,0,0,0,0,0,0,0,0,0,0,0,0,0,0,0,0,0,0,0,0,0,0,0,0,0],"sum_hessian":[6.840783E3,4.536572E3,2.3042114E3,3.6732117E3,8.633601E2,2.1011099E3,2.0310172E2,1.7836998E3,1.8895117E3,6.5409283E2,2.0926724E2,5.1508954E2,1.5860203E3,1.7023003E2,3.287169E1,2.1289961E2,1.5708003E3,2.0447536E2,1.6850364E3,6.521426E1,5.888786E2,1.5652266E2,5.2744595E1,5.723971E1,4.5784982E2,5.006796E2,1.0853406E3,9.5673836E1,7.45562E1,2.0990911E1,1.1880775E1,1.71356E1,1.95764E2,2.4519212E2,1.3256082E3,1.035285E2,1.0094685E2,9.8069507E2,7.043413E2,1.3914104E1,5.1300156E1,3.6723212E2,2.2164648E2,1.0351634E2,5.300631E1,4.0631516E1,1.2113081E1,4.168173E1,1.55579815E1,8.758467E1,3.7026517E2,3.7499338E2,1.25686226E2,5.401749E2,5.451657E2,4.6490837E1,4.9182995E1,3.292374E1,4.1632458E1,1.0368542E1,1.062237E1,3.186258E1,1.6390143E2,2.831596E1,2.1687616E2,9.005293E2,4.250788E2,8.5585045E1,1.7943457E1,1.4217909E1,8.672894E1,4.496258E2,5.310693E2,6.80984E2,2.3357307E1,2.6410364E2,1.03128494E2,1.0220764E2,1.1943884E2,2.4579586E1,2.8426723E1,1.9933456E1,6.7651215E1,3.3176535E2,3.849981E1,1.0574308E2,2.692503E2,1.4110064E1,1.1157616E2,6.1479E1,4.786959E2,4.9710025E2,4.806547E1,3.137983E1,1.511101E1,3.8643368E1,1.0539625E1,2.2794125E1,1.0129614E1,3.142596E1,1.0206496E1],"tree_param":{"num_deleted":"0","num_feature":"9","num_nodes":"101","size_leaf_vector":"1"}},{"base_weights":[2.8641066E-3,1.348239E-1,-7.667718E-1,-7.003969E-2,4.9049273E-1,-1.0055598E0,-4.3053108E-1,-2.4337043E-1,8.2149446E-2,6.668248E-1,4.0669626E-1,-7.6439524E-1,-1.2384435E0,-5.369379E-1,4.4649612E-2,-1.5300328E-2,-2.8520247E-1,4.3057925E-1,3.7737768E-3,1.0968626E0,6.2682855E-1,4.1938287E-1,-5.6691053E-3,-6.1870437E-2,-7.26628E-1,-1.4310396E0,-1.0588572E0,-3.885221E-1,-6.3638204E-1,-8.4664464E-2,3.351138E-2,-4.4428968E-1,4.7829628E-2,-2.2917625E-1,-3.945854E-1,-8.4023535E-2,4.7690552E-1,8.794052E-2,-1.1017317E-1,6.985804E-2,2.744447E-2,4.2680144E-1,6.6313696E-1,3.2212514E-1,4.6131104E-1,2.4888901E-1,-1.7500613E-2,-8.037096E-1,-5.900065E-1,-5.1173568E-2,-7.309924E-2,-9.897259E-1,-6.51106E-2,-5.0718474E-1,-2.705709E-2,-5.4047215E-1,-7.7055717E-1,8.7124735E-2,-2.7888834E-1,-3.7319627E-2,-6.6783796E-3,6.0114725E-3,-1.2211299E-2,-2.1873256E-2,-1.0050944E-2,-3.586708E-2,-1.8218605E-2,-1.5565798E-2,3.9026544E-3,2.9165039E-2,1.5566361E-2,5.550667E-3,-1.5132578E-2,-3.5173427E-3,-1.4627032E-2,2.7185643E-2,9.447536E-3,2.5718898E-2,3.5357606E-2,2.3922566E-3,1.7674996E-2,2.5379837E-2,1.9228876E-2,-4.066196E-3,2.418728E-2,-5.476879E-2,-3.8726326E-2,-5.6336583E-3,-3.221792E-2,-5.2859962E-2,-4.2472836E-2,-1.2742804E-2,-2.7950991E-2,1.5018277E-2,-9.522324E-3,-4.8482925E-2,-2.4006935E-2,-4.2776726E-2,-1.8173302E-2,-7.2516785E-3,2.6087677E-2,7.8280777E-4,-2.2658434E-2],"categories":[],"categories_nodes":[],"categories_segments":[],"categories_sizes":[],"default_left":[0,0,0,0,0,0,0,0,0,0,0,0,0,0,0,0,0,0,0,0,0,0,0,0,0,0,0,0,0,0,0,0,0,0,0,0,0,0,0,0,0,0,0,0,0,0,0,0,0,0,0,0,0,0,0,0,0,0,0,0,0,0,0,0,0,0,0,0,0,0,0,0,0,0,0,0,0,0,0,0,0,0,0,0,0,0,0,0,0,0,0,0,0,0,0,0,0,0,0,0,0,0,0],"id":6,"left_children":[1,3,5,7,9,11,13,15,17,19,21,23,25,27,29,31,33,35,37,39,41,43,45,-1,47,49,51,53,55,57,-1,59,61,63,65,67,69,71,73,-1,-1,75,77,79,81,83,-1,85,87,-1,-1,89,-1,91,93,95,97,99,101,-1,-1,-1,-1,-1,-1,-1,-1,-1,-1,-1,-1,-1,-1,-1,-1,-1,-1,-1,-1,-1,-1,-1,-1,-1,-1,-1,-1,-1,-1,-1,-1,-1,-1,-1,-1,-1,-1,-1,-1,-1,-1,-1,-1],"loss_changes":[6.945436E2,4.2539307E2,7.993182E1,9.775531E1,3.1256409E1,3.1882507E1,2.1128578E1,1.6524353E1,5.3893753E1,1.1107727E1,7.582489E0,4.2774963E0,8.714294E0,4.7871704E0,6.3091826E0,7.3217454E0,8.880722E0,8.679695E0,1.5471321E1,8.616188E0,4.290695E0,5.5835724E0,3.9643786E0,0E0,2.3772736E0,2.677307E-1,1.350647E0,5.9664783E0,2.1918182E0,2.1909842E0,0E0,3.1555333E0,5.0172296E0,5.603527E0,4.56028E0,1.1582255E0,5.678177E0,8.395114E0,4.957217E0,0E0,0E0,2.6656609E0,3.11438E0,3.65559E0,3.2851868E0,2.0569956E0,0E0,6.015091E-1,2.558796E0,0E0,0E0,2.9779816E-1,0E0,1.229681E0,1.9571403E0,2.6817513E0,2.5305061E0,3.6295683E0,1.583888E0,0E0,0E0,0E0,0E0,0E0,0E0,0E0,0E0,0E0,0E0,0E0,0E0,0E0,0E0,0E0,0E0,0E0,0E0,0E0,0E0,0E0,0E0,0E0,0E0,0E0,0E0,0E0,0E0,0E0,0E0,0E0,0E0,0E0,0E0,0E0,0E0,0E0,0E0,0E0,0E0,0E0,0E0,0E0,0E0],"parents":[2147483647,0,0,1,1,2,2,3,3,4,4,5,5,6,6,7,7,8,8,9,9,10,10,11,11,12,12,13,13,14,14,15,15,16,16,17,17,18,18,19,19,20,20,21,21,22,22,24,24,25,25,26,26,27,27,28,28,29,29,31,31,32,32,33,33,34,34,35,35,36,36,37,37,38,38,41,41,42,42,43,43,44,44,45,45,47,47,48,48,51,51,53,53,54,54,55,55,56,56,57,57,58,58],"right_children":[2,4,6,8,10,12,14,16,18,20,22,24,26,28,30,32,34,36,38,40,42,44,46,-1,48,50,52,54,56,58,-1,60,62,64,66,68,70,72,74,-1,-1,76,78,80,82,84,-1,86,88,-1,-1,90,-1,92,94,96,98,100,102,-1,-1,-1,-1,-1,-1,-1,-1,-1,-1,-1,-1,-1,-1,-1,-1,-1,-1,-1,-1,-1,-1,-1,-1,-1,-1,-1,-1,-1,-1,-1,-1,-1,-1,-1,-1,-1,-1,-1,-1,-1,-1,-1,-1],"split_conditions":[1.6E1,2.44E2,1.34E2,1.28E2,1.3261E2,3E0,3.18E2,1.2307E2,1.2355E2,1.165E1,4E0,2.978E1,8.498E1,7.7E1,4.38E2,2.978E1,1.9782E2,1.4E2,1.87E2,4.67E2,9.52E1,3.22E2,1.7553E2,-6.1870437E-2,7.7E1,1.2E2,5E0,2.25E2,3E0,3.326E2,3.351138E-2,6.3E1,1.11E2,1.7E1,2.046E2,1.09E2,1.13E2,3.9882E2,2.7755E2,6.985804E-2,2.744447E-2,5.092E1,3.01E2,1.3689E2,1.9152E2,2.4426E2,-1.7500613E-2,2.0271E2,2.3337E2,-5.1173568E-2,-7.309924E-2,6.5E1,-6.51106E-2,1.48E2,3.2E1,1.4623E2,2.46E2,1.2753E2,4.8E1,-3.7319627E-2,-6.6783796E-3,6.0114725E-3,-1.2211299E-2,-2.1873256E-2,-1.0050944E-2,-3.586708E-2,-1.8218605E-2,-1.5565798E-2,3.9026544E-3,2.9165039E-2,1.5566361E-2,5.550667E-3,-1.5132578E-2,-3.5173427E-3,-1.4627032E-2,2.7185643E-2,9.447536E-3,2.5718898E-2,3.5357606E-2,2.3922566E-3,1.7674996E-2,2.5379837E-2,1.9228876E-2,-4.066196E-3,2.418728E-2,-5.476879E-2,-3.8726326E-2,-5.6336583E-3,-3.221792E-2,-5.2859962E-2,-4.2472836E-2,-1.2742804E-2,-2.7950991E-2,1.5018277E-2,-9.522324E-3,-4.8482925E-2,-2.4006935E-2,-4.2776726E-2,-1.8173302E-2,-7.2516785E-3,2.6087677E-2,7.8280777E-4,-2.2658434E-2],"split_indices":[4,5,5,5,1,0,5,1,1,2,4,2,2,4,5,2,1,5,5,5,1,5,2,0,5,4,0,5,0,1,0,5,5,5,1,1,2,1,1,0,0,2,5,2,1,1,0,1,1,0,0,5,0,5,4,1,5,2,4,0,0,0,0,0,0,0,0,0,0,0,0,0,0,0,0,0,0,0,0,0,0,0,0,0,0,0,0,0,0,0,0,0,0,0,0,0,0,0,0,0,0,0,0],"split_type":[0,0,0,0,0,0,0,0,0,0,0,0,0,0,0,0,0,0,0,0,0,0,0,0,0,0,0,0,0,0,0,0,0,0,0,0,0,0,0,0,0,0,0,0,0,0,0,0,0,0,0,0,0,0,0,0,0,0,0,0,0,0,0,0,0,0,0,0,0,0,0,0,0,0,0,0,0,0,0,0,0,0,0,0,0,0,0,0,0,0,0,0,0,0,0,0,0,0,0,0,0,0,0],"sum_hessian":[6.8366665E3,5.8367393E3,9.9992755E2,3.7040352E3,2.1327039E3,5.835309E2,4.1639664E2,1.7314541E3,1.972581E3,6.8477704E2,1.447927E3,2.8877255E2,2.9475833E2,3.4010684E2,7.6289795E1,2.6856924E2,1.4628849E3,3.6140622E2,1.6111748E3,5.6020752E1,6.287563E2,1.4046938E3,4.3233067E1,1.9003267E1,2.697693E2,1.38865E2,1.5589333E2,1.3842334E2,2.016835E2,6.3937786E1,1.2352005E1,3.367802E1,2.3489122E2,9.694336E2,4.9345126E2,2.9780779E1,3.3162543E2,9.268136E2,6.843612E2,3.5187656E1,2.0833092E1,9.8555916E1,5.302004E2,4.2576364E2,9.7893024E2,2.5016582E1,1.8216482E1,1.6934335E2,1.0042594E2,1.2203997E1,1.26661E2,1.2535105E2,3.0542276E1,1.0390877E2,3.4514576E1,1.2054481E2,8.1138695E1,3.4221027E1,2.9716759E1,1.6364925E1,1.7313095E1,1.8870105E2,4.6190166E1,1.1371462E2,8.5571893E2,4.0291527E1,4.5315976E2,1.2013099E1,1.776768E1,2.0035864E2,1.312668E2,8.757949E2,5.101866E1,5.628327E2,1.2152848E2,6.5214775E1,3.3341137E1,1.2395448E2,4.0624588E2,4.3962852E1,3.8180078E2,6.0710754E2,3.7182266E2,1.0669204E1,1.434738E1,1.2079713E1,1.5726364E2,1.0580265E1,8.984567E1,8.022409E1,4.512696E1,1.8716259E1,8.5192505E1,1.1210686E1,2.330389E1,1.2999592E1,1.0754521E2,6.621518E1,1.4923519E1,2.2740452E1,1.1480577E1,1.1385213E1,1.8331545E1],"tree_param":{"num_deleted":"0","num_feature":"9","num_nodes":"103","size_leaf_vector":"1"}},{"base_weights":[-7.453801E-4,-2.1546099E-1,4.2999506E-1,-7.297603E-2,-8.40809E-1,4.7431642E-1,-1.1685391E-1,-2.3867057E-1,7.837182E-2,-6.4086336E-1,-1.0836055E0,6.380353E-1,3.941283E-1,1.1814893E-1,-3.7226063E-1,-6.2203284E-2,-2.7166986E-1,4.1045615E-1,6.0174405E-3,-5.453681E-2,-6.117081E-1,-1.2243865E0,-7.812075E-1,4.7934988E-1,7.5637925E-1,4.4092306E-1,2.9762188E-1,-3.9231356E-2,3.4565356E-2,-2.8498694E-1,-3.1603634E-2,-4.859645E-1,1.9060951E-3,-3.6698142E-1,-2.4266106E-1,6.79077E-1,2.9174381E-1,9.012741E-2,-9.296611E-2,-6.8458205E-1,-4.8160332E-1,-7.023421E-2,-1.039997E0,-5.095803E-1,-8.76745E-1,3.0723462E-1,5.041161E-1,1.0818323E0,7.050095E-1,2.958657E-1,4.783338E-1,2.0520295E-1,3.9676845E-1,-1.1535119E-1,1.9396836E-2,-3.8864306E-1,-8.526098E-2,-3.7896276E-2,-1.0204299E-2,-1.9687202E-2,2.2857252E-3,-2.4125285E-2,-1.5492282E-2,-6.611959E-3,-1.3533738E-2,3.8048442E-2,1.530569E-2,9.230453E-3,2.3154045E-2,9.901646E-3,-1.1143031E-3,-7.03341E-3,9.488623E-4,-4.3723077E-2,-3.2302614E-2,-1.5142873E-2,-3.0861396E-2,-4.649042E-2,-5.7188094E-2,-1.8910866E-2,-3.5549544E-2,-4.646026E-2,-3.2352757E-2,2.1716524E-2,-9.887739E-4,3.0115703E-2,2.0560136E-2,7.047652E-2,3.545974E-2,3.277984E-2,4.94017E-2,1.9972948E-2,1.0408154E-2,1.8939521E-2,2.780563E-2,1.192455E-2,-4.400996E-3,4.43385E-2,1.7902521E-2,-1.8109496E-3,-2.291E-2,-6.27883E-3,-2.6834482E-2,-1.961702E-2,1.0333646E-2],"categories":[],"categories_nodes":[],"categories_segments":[],"categories_sizes":[],"default_left":[0,0,0,0,0,0,0,0,0,0,0,0,0,0,0,0,0,0,0,0,0,0,0,0,0,0,0,0,0,0,0,0,0,0,0,0,0,0,0,0,0,0,0,0,0,0,0,0,0,0,0,0,0,0,0,0,0,0,0,0,0,0,0,0,0,0,0,0,0,0,0,0,0,0,0,0,0,0,0,0,0,0,0,0,0,0,0,0,0,0,0,0,0,0,0,0,0,0,0,0,0,0,0,0,0],"id":7,"left_children":[1,3,5,7,9,11,13,15,17,19,21,23,25,27,29,31,33,35,37,-1,39,41,43,45,47,49,51,53,-1,55,-1,57,59,61,63,65,67,69,71,73,75,-1,77,79,81,83,85,87,89,91,93,95,97,99,-1,101,103,-1,-1,-1,-1,-1,-1,-1,-1,-1,-1,-1,-1,-1,-1,-1,-1,-1,-1,-1,-1,-1,-1,-1,-1,-1,-1,-1,-1,-1,-1,-1,-1,-1,-1,-1,-1,-1,-1,-1,-1,-1,-1,-1,-1,-1,-1,-1,-1],"loss_changes":[6.3183606E2,4.061618E2,5.5136597E1,9.315982E1,4.037152E1,2.734961E1,1.0318666E1,1.0309418E1,4.6655888E1,5.4493866E0,1.524527E1,1.2587463E1,6.253601E0,8.137541E0,1.68536E0,7.625594E0,4.040619E0,1.0879471E1,1.3291456E1,0E0,3.8442993E0,7.1135864E0,2.7621841E0,1.1124649E0,5.812149E0,5.014221E0,4.177189E0,2.3692715E0,0E0,1.2795434E0,0E0,2.6728659E0,4.260623E0,2.1380424E0,3.515503E0,2.9958801E0,4.3689785E0,1.0473186E1,3.919098E0,1.4821472E0,3.7264442E0,0E0,4.3850708E-1,6.4557457E-1,4.8433685E-1,1.6694038E0,2.1095123E0,5.318596E0,4.142517E0,1.7103996E0,5.6244354E0,2.3890858E0,3.916031E0,1.6504889E0,0E0,1.5473504E0,2.1380184E0,0E0,0E0,0E0,0E0,0E0,0E0,0E0,0E0,0E0,0E0,0E0,0E0,0E0,0E0,0E0,0E0,0E0,0E0,0E0,0E0,0E0,0E0,0E0,0E0,0E0,0E0,0E0,0E0,0E0,0E0,0E0,0E0,0E0,0E0,0E0,0E0,0E0,0E0,0E0,0E0,0E0,0E0,0E0,0E0,0E0,0E0,0E0,0E0],"parents":[2147483647,0,0,1,1,2,2,3,3,4,4,5,5,6,6,7,7,8,8,9,9,10,10,11,11,12,12,13,13,14,14,15,15,16,16,17,17,18,18,20,20,21,21,22,22,23,23,24,24,25,25,26,26,27,27,29,29,31,31,32,32,33,33,34,34,35,35,36,36,37,37,38,38,39,39,40,40,42,42,43,43,44,44,45,45,46,46,47,47,48,48,49,49,50,50,51,51,52,52,53,53,55,55,56,56],"right_children":[2,4,6,8,10,12,14,16,18,20,22,24,26,28,30,32,34,36,38,-1,40,42,44,46,48,50,52,54,-1,56,-1,58,60,62,64,66,68,70,72,74,76,-1,78,80,82,84,86,88,90,92,94,96,98,100,-1,102,104,-1,-1,-1,-1,-1,-1,-1,-1,-1,-1,-1,-1,-1,-1,-1,-1,-1,-1,-1,-1,-1,-1,-1,-1,-1,-1,-1,-1,-1,-1,-1,-1,-1,-1,-1,-1,-1,-1,-1,-1,-1,-1,-1,-1,-1,-1,-1,-1],"split_conditions":[2.44E2,1.6E1,1E1,1.31E2,3E0,1.3322E2,3.326E2,1.2307E2,1.2307E2,6.716E1,1.02E2,3.59E2,2.0835E2,4.13E2,1.13E2,2.978E1,3.5E1,9.876E1,1.85E2,-5.453681E-2,1.4E2,8.498E1,8.5E1,8.498E1,1.165E1,1.398E2,3.75E2,2.9981E2,3.4565356E-2,2.1929E2,-3.1603634E-2,6.4E1,1.4E1,1.502E2,1.3831E2,2.16E2,1.84E2,1.6872E2,2.22E2,9.7E1,1.5719E2,-7.023421E-2,6.2449E2,4E0,1.95E2,3.21E2,1.1856E2,4.46E2,1.2667E2,3.65E2,3.52E2,3.63E2,3.84E2,1.62E2,1.9396836E-2,3.2E1,2.8E1,-3.7896276E-2,-1.0204299E-2,-1.9687202E-2,2.2857252E-3,-2.4125285E-2,-1.5492282E-2,-6.611959E-3,-1.3533738E-2,3.8048442E-2,1.530569E-2,9.230453E-3,2.3154045E-2,9.901646E-3,-1.1143031E-3,-7.03341E-3,9.488623E-4,-4.3723077E-2,-3.2302614E-2,-1.5142873E-2,-3.0861396E-2,-4.649042E-2,-5.7188094E-2,-1.8910866E-2,-3.5549544E-2,-4.646026E-2,-3.2352757E-2,2.1716524E-2,-9.887739E-4,3.0115703E-2,2.0560136E-2,7.047652E-2,3.545974E-2,3.277984E-2,4.94017E-2,1.9972948E-2,1.0408154E-2,1.8939521E-2,2.780563E-2,1.192455E-2,-4.400996E-3,4.43385E-2,1.7902521E-2,-1.8109496E-3,-2.291E-2,-6.27883E-3,-2.6834482E-2,-1.961702E-2,1.0333646E-2],"split_indices":[5,4,4,3,0,1,1,1,1,1,5,3,1,5,4,2,5,1,3,0,5,2,4,2,2,1,3,1,0,2,0,3,5,2,2,3,3,1,3,3,2,0,1,0,5,3,1,5,1,3,3,3,5,4,0,4,4,0,0,0,0,0,0,0,0,0,0,0,0,0,0,0,0,0,0,0,0,0,0,0,0,0,0,0,0,0,0,0,0,0,0,0,0,0,0,0,0,0,0,0,0,0,0,0,0],"split_type":[0,0,0,0,0,0,0,0,0,0,0,0,0,0,0,0,0,0,0,0,0,0,0,0,0,0,0,0,0,0,0,0,0,0,0,0,0,0,0,0,0,0,0,0,0,0,0,0,0,0,0,0,0,0,0,0,0,0,0,0,0,0,0,0,0,0,0,0,0,0,0,0,0,0,0,0,0,0,0,0,0,0,0,0,0,0,0,0,0,0,0,0,0,0,0,0,0,0,0,0,0,0,0,0,0],"sum_hessian":[6.829641E3,4.5580454E3,2.271596E3,3.713129E3,8.4491626E2,2.1014119E3,1.7018396E2,1.7722765E3,1.9408525E3,4.6534174E2,3.7957452E2,6.885838E2,1.4128281E3,8.8912186E1,8.1271774E1,2.7965848E2,1.4926179E3,3.4638397E2,1.5944685E3,2.6106144E1,4.392356E2,2.5691794E2,1.2265657E2,2.9631302E2,3.9227078E2,9.49068E2,4.6376007E2,7.0488655E1,1.842353E1,6.2405865E1,1.886591E1,3.5884262E1,2.437742E2,3.4556778E2,1.1470502E3,1.0471523E2,2.4166873E2,8.620459E2,7.3242267E2,2.7880832E2,1.6042726E2,1.2655411E2,1.3036385E2,3.3563736E1,8.9092834E1,3.8960278E1,2.5735272E2,5.0741016E1,3.4152975E2,1.9641034E2,7.5265765E2,2.4161223E2,2.2214784E2,6.0447147E1,1.0041505E1,4.046104E1,2.1944826E1,1.7403877E1,1.8480383E1,2.3504892E1,2.2026932E2,1.1188988E2,2.336779E2,2.3327364E2,9.1377655E2,8.500933E1,1.97059E1,1.499712E2,9.169752E1,4.3945355E2,4.2259235E2,5.1339465E2,2.1902798E2,4.3371742E1,2.3543658E2,7.0605736E1,8.982152E1,6.805577E1,6.2308075E1,2.2056196E1,1.1507541E1,7.004855E1,1.9044281E1,2.7819681E1,1.11405945E1,1.224528E2,1.3489993E2,2.5517935E1,2.522308E1,2.93589E2,4.7940784E1,8.8417725E1,1.0799261E2,3.3271283E2,4.1994485E2,2.171473E2,2.4464931E1,1.4663876E1,2.0748396E2,5.001007E1,1.0437077E1,1.5236055E1,2.5224983E1,1.0527366E1,1.141746E1],"tree_param":{"num_deleted":"0","num_feature":"9","num_nodes":"105","size_leaf_vector":"1"}},{"base_weights":[9.380951E-3,1.2945424E-1,-7.280886E-1,-5.930256E-2,4.6121427E-1,-9.227572E-1,-4.3576536E-1,-2.252971E-1,9.634945E-2,6.291573E-1,3.8255376E-1,-6.721599E-1,-1.1557379E0,-5.8050853E-1,-1.7862546E-1,-4.591217E-1,-1.9877562E-1,5.545677E-1,4.1427583E-2,1.0050582E0,5.941688E-1,4.3712884E-1,2.7877715E-1,-5.188314E-2,-6.446888E-1,-1.3359164E0,-9.9818194E-1,-5.242294E-1,-4.2425353E-2,3.4930725E-2,-4.0498492E-1,-3.7304934E-2,-4.2816007E-1,-8.668574E-2,-2.5250202E-1,6.6867745E-1,4.3101478E-1,1.1612411E-1,-5.210228E-2,6.661143E-2,6.018063E-1,4.285906E-1,6.2456554E-1,3.1735682E-1,4.63681E-1,1.7605005E-1,3.6870992E-1,-5.2768266E-1,-6.963971E-1,-4.911041E-2,-6.8374276E-2,-1.0697091E0,-4.2637594E-2,-8.509591E-1,-4.4672656E-1,2.5347137E-1,-2.1264361E-1,-2.962623E-1,-5.635671E-1,-2.9846495E-3,-2.2643352E-2,-2.9693747E-2,-3.3711665E-3,-1.2283611E-2,-3.7936535E-2,4.081802E-2,2.726168E-2,1.7790666E-2,3.7287068E-2,1.0846636E-2,1.7865206E-3,-1.2459408E-3,-1.5526794E-2,3.667853E-2,2.3481773E-2,2.74411E-2,9.577589E-3,2.4738884E-2,3.305085E-2,1.2170478E-2,2.3675537E-2,1.4477305E-2,2.4696367E-2,6.515073E-3,2.8466022E-2,2.3068285E-2,1.4142702E-2,-2.866428E-2,-9.5695E-3,-4.2072695E-2,-3.206132E-2,-4.03131E-2,-5.6313105E-2,-2.7088454E-2,-4.889949E-2,-2.5355173E-4,-2.4557589E-2,2.1155363E-2,-4.329222E-3,-2.2563621E-2,1.2616239E-2,-1.9602735E-2,-3.818869E-4,-3.4329068E-2,-1.8647349E-2],"categories":[],"categories_nodes":[],"categories_segments":[],"categories_sizes":[],"default_left":[0,0,0,0,0,0,0,0,0,0,0,0,0,0,0,0,0,0,0,0,0,0,0,0,0,0,0,0,0,0,0,0,0,0,0,0,0,0,0,0,0,0,0,0,0,0,0,0,0,0,0,0,0,0,0,0,0,0,0,0,0,0,0,0,0,0,0,0,0,0,0,0,0,0,0,0,0,0,0,0,0,0,0,0,0,0,0,0,0,0,0,0,0,0,0,0,0,0,0,0,0,0,0,0,0],"id":8,"left_children":[1,3,5,7,9,11,13,15,17,19,21,23,25,27,29,31,33,35,37,39,41,43,45,-1,47,49,51,53,-1,55,57,-1,59,61,63,65,67,69,71,-1,73,75,77,79,81,83,85,87,89,-1,-1,91,-1,93,95,97,99,101,103,-1,-1,-1,-1,-1,-1,-1,-1,-1,-1,-1,-1,-1,-1,-1,-1,-1,-1,-1,-1,-1,-1,-1,-1,-1,-1,-1,-1,-1,-1,-1,-1,-1,-1,-1,-1,-1,-1,-1,-1,-1,-1,-1,-1,-1,-1],"loss_changes":[6.029914E2,3.6674405E2,5.3856873E1,9.648118E1,2.7814514E1,3.258658E1,1.4152618E1,1.111425E1,4.8482048E1,8.291901E0,8.083862E0,2.1193924E0,7.0336914E0,3.2449799E0,6.7527957E0,1.3093071E0,9.761955E0,2.6190567E0,1.2037802E1,6.6003876E0,2.8565826E0,2.8668976E0,4.573742E0,0E0,1.2111969E0,1.5917969E-1,7.6460266E-1,4.805794E0,0E0,3.9845781E0,1.0011578E0,0E0,1.5006199E0,5.117594E0,3.6088562E0,1.4761696E0,2.144556E0,7.7546186E0,5.369138E0,0E0,1.2491608E-1,2.7296982E0,2.1438599E0,1.9072151E0,3.9315033E0,4.177065E0,1.9919662E0,1.1800156E0,8.836136E-1,0E0,0E0,6.432419E-1,0E0,9.68956E-1,3.2866364E0,2.288874E0,3.9535375E0,1.1665833E0,3.6413002E-1,0E0,0E0,0E0,0E0,0E0,0E0,0E0,0E0,0E0,0E0,0E0,0E0,0E0,0E0,0E0,0E0,0E0,0E0,0E0,0E0,0E0,0E0,0E0,0E0,0E0,0E0,0E0,0E0,0E0,0E0,0E0,0E0,0E0,0E0,0E0,0E0,0E0,0E0,0E0,0E0,0E0,0E0,0E0,0E0,0E0,0E0],"parents":[2147483647,0,0,1,1,2,2,3,3,4,4,5,5,6,6,7,7,8,8,9,9,10,10,11,11,12,12,13,13,14,14,15,15,16,16,17,17,18,18,19,19,20,20,21,21,22,22,24,24,25,25,26,26,27,27,29,29,30,30,32,32,33,33,34,34,35,35,36,36,37,37,38,38,40,40,41,41,42,42,43,43,44,44,45,45,46,46,47,47,48,48,51,51,53,53,54,54,55,55,56,56,57,57,58,58],"right_children":[2,4,6,8,10,12,14,16,18,20,22,24,26,28,30,32,34,36,38,40,42,44,46,-1,48,50,52,54,-1,56,58,-1,60,62,64,66,68,70,72,-1,74,76,78,80,82,84,86,88,90,-1,-1,92,-1,94,96,98,100,102,104,-1,-1,-1,-1,-1,-1,-1,-1,-1,-1,-1,-1,-1,-1,-1,-1,-1,-1,-1,-1,-1,-1,-1,-1,-1,-1,-1,-1,-1,-1,-1,-1,-1,-1,-1,-1,-1,-1,-1,-1,-1,-1,-1,-1,-1,-1],"split_conditions":[2.1E1,2.44E2,1.39E2,1.32E2,1.3261E2,2E0,2.41E2,1.4E1,1.1274E2,1.165E1,2.0661E2,3.814E1,8.498E1,6.2449E2,7.6E1,1.0991E2,1.3927E2,9.876E1,1.69E2,4.46E2,9.52E1,1.39E2,3.6E2,-5.188314E-2,1.4309E2,1.2E2,6.5E1,9.44E1,-4.2425353E-2,3.3736E2,3.7055E2,-3.7304934E-2,1.2037E2,1.907E1,1.6E1,1.69E2,2.19E2,1.77E2,2E0,6.661143E-2,4.79E2,5.092E1,2.99E2,4.11E2,2.84E2,6E-1,4.25E2,1.3689E2,3.1E1,-4.911041E-2,-6.8374276E-2,4.4879E2,-4.2637594E-2,1.23E2,2.5056E2,5.6E1,2.1243E2,1.3674E2,2.1045E2,-2.9846495E-3,-2.2643352E-2,-2.9693747E-2,-3.3711665E-3,-1.2283611E-2,-3.7936535E-2,4.081802E-2,2.726168E-2,1.7790666E-2,3.7287068E-2,1.0846636E-2,1.7865206E-3,-1.2459408E-3,-1.5526794E-2,3.667853E-2,2.3481773E-2,2.74411E-2,9.577589E-3,2.4738884E-2,3.305085E-2,1.2170478E-2,2.3675537E-2,1.4477305E-2,2.4696367E-2,6.515073E-3,2.8466022E-2,2.3068285E-2,1.4142702E-2,-2.866428E-2,-9.5695E-3,-4.2072695E-2,-3.206132E-2,-4.03131E-2,-5.6313105E-2,-2.7088454E-2,-4.889949E-2,-2.5355173E-4,-2.4557589E-2,2.1155363E-2,-4.329222E-3,-2.2563621E-2,1.2616239E-2,-1.9602735E-2,-3.818869E-4,-3.4329068E-2,-1.8647349E-2],"split_indices":[4,5,5,5,1,6,5,5,1,2,1,2,2,1,4,2,1,1,1,5,1,1,5,0,2,4,5,2,0,1,1,0,1,2,4,5,5,5,4,0,5,2,5,5,5,8,5,2,5,0,0,1,0,4,1,4,2,2,2,0,0,0,0,0,0,0,0,0,0,0,0,0,0,0,0,0,0,0,0,0,0,0,0,0,0,0,0,0,0,0,0,0,0,0,0,0,0,0,0,0,0,0,0,0,0],"split_type":[0,0,0,0,0,0,0,0,0,0,0,0,0,0,0,0,0,0,0,0,0,0,0,0,0,0,0,0,0,0,0,0,0,0,0,0,0,0,0,0,0,0,0,0,0,0,0,0,0,0,0,0,0,0,0,0,0,0,0,0,0,0,0,0,0,0,0,0,0,0,0,0,0,0,0,0,0,0,0,0,0,0,0,0,0,0,0,0,0,0,0,0,0,0,0,0,0,0,0,0,0,0,0,0,0],"sum_hessian":[6.80752E3,5.855039E3,9.5248114E2,3.7323296E3,2.1227095E3,5.704447E2,3.8203638E2,1.8059418E3,1.9263877E3,6.748601E2,1.4478494E3,2.7670355E2,2.9374118E2,2.4363663E2,1.3839977E2,1.8230978E2,1.6236321E3,2.0520937E2,1.7211783E3,5.51056E1,6.197545E2,9.467507E2,5.010987E2,1.6772516E1,2.5993103E2,1.3354367E2,1.601975E2,2.03796E2,3.984062E1,7.164902E1,6.675075E1,1.5504485E1,1.6680531E2,5.269224E2,1.0967096E3,1.04387856E2,1.0082151E2,9.5679974E2,7.6437854E2,2.915089E1,2.5954708E1,9.846936E1,5.2128516E2,1.7414899E2,7.726017E2,2.3529124E2,2.6580746E2,8.309896E1,1.7683208E2,1.3573683E1,1.1996999E2,1.0312291E2,5.7074593E1,3.7160084E1,1.6663593E2,3.8043316E1,3.3605698E1,4.1302376E1,2.5448374E1,1.0696672E1,1.5610863E2,1.8188152E1,5.087343E2,1.0835758E3,1.3133797E1,4.4972004E1,5.9415848E1,8.309674E1,1.7724773E1,4.237481E2,5.3305164E2,6.926213E2,7.175727E1,1.0718754E1,1.5235953E1,6.4459E1,3.4010365E1,1.1749819E2,4.0378696E2,1.1991943E2,5.422955E1,1.15901764E2,6.566999E2,2.11965E2,2.3326258E1,1.2573759E2,1.4006987E2,7.2555374E1,1.0543586E1,4.479746E1,1.320346E2,2.092101E1,8.22019E1,1.2354457E1,2.4805626E1,1.5331476E1,1.5130444E2,2.5218773E1,1.2824542E1,2.2227608E1,1.1378091E1,3.0741232E1,1.0561147E1,1.3885627E1,1.1562746E1],"tree_param":{"num_deleted":"0","num_feature":"9","num_nodes":"105","size_leaf_vector":"1"}},{"base_weights":[-4.4394424E-3,1.0999733E-1,-6.804646E-1,-6.3412815E-2,4.210439E-1,-5.566064E-1,-1.1178774E0,-2.2326875E-1,7.53754E-2,5.713012E-1,3.4780028E-1,-7.0596653E-1,-4.1463846E-1,-9.1253716E-1,-1.2645103E0,-4.308254E-1,-1.9716561E-1,3.9850074E-1,5.0872928E-3,9.6624154E-1,5.359232E-1,4.1641432E-1,2.8115225E-1,-6.095552E-1,-8.57242E-1,4.2353027E-2,-5.621525E-1,-1.0712463E0,-1.3761185E-2,-6.5870486E-2,-5.0897576E-2,-3.6985096E-2,-4.078865E-1,-1.8096916E-2,-2.2961639E-1,4.8310784E-1,2.5830853E-1,7.657077E-2,-7.927663E-2,6.345313E-2,2.8389141E-2,4.2992198E-1,6.2052E-1,2.8563026E-1,4.644844E-1,1.9190982E-1,3.1976104E-1,-8.3911216E-1,-4.7635832E-1,-5.5763196E-2,-7.8742355E-1,-5.7641298E-2,2.8639859E-2,-9.6592635E-1,-4.8776454E-1,-3.4414183E-2,-5.6022055E-2,-1.8238535E-2,-3.0436248E-2,-2.4625536E-3,2.6586572E-2,-1.0770512E-2,-1.8824741E-2,8.313227E-3,2.554121E-2,4.0011513E-3,2.20154E-2,5.158759E-3,-1.1541219E-2,-6.213916E-3,3.5999573E-4,-1.3920915E-3,2.265927E-2,4.366411E-2,2.8042858E-2,2.3521539E-2,7.967504E-3,1.8590562E-2,2.7226374E-2,1.0914173E-2,-1.3235845E-2,3.206457E-2,1.4867539E-2,-5.5680435E-2,-3.9244108E-2,-1.4054102E-2,-2.5570353E-2,-2.6428038E-2,-4.286947E-2,-5.977157E-3,1.5060882E-2,-2.7317718E-2,-5.592664E-2,-1.2611377E-2,-2.9952396E-2],"categories":[],"categories_nodes":[],"categories_segments":[],"categories_sizes":[],"default_left":[0,0,0,0,0,0,0,0,0,0,0,0,0,0,0,0,0,0,0,0,0,0,0,0,0,0,0,0,0,0,0,0,0,0,0,0,0,0,0,0,0,0,0,0,0,0,0,0,0,0,0,0,0,0,0,0,0,0,0,0,0,0,0,0,0,0,0,0,0,0,0,0,0,0,0,0,0,0,0,0,0,0,0,0,0,0,0,0,0,0,0,0,0,0,0],"id":9,"left_children":[1,3,5,7,9,11,13,15,17,19,21,23,25,27,29,31,33,35,37,39,41,43,45,47,49,51,53,55,-1,-1,-1,-1,57,59,61,63,65,67,69,-1,-1,71,73,75,77,79,81,83,85,-1,87,89,-1,91,93,-1,-1,-1,-1,-1,-1,-1,-1,-1,-1,-1,-1,-1,-1,-1,-1,-1,-1,-1,-1,-1,-1,-1,-1,-1,-1,-1,-1,-1,-1,-1,-1,-1,-1,-1,-1,-1,-1,-1,-1],"loss_changes":[5.2796173E2,3.148438E2,5.2905E1,8.317615E1,2.2795074E1,1.607634E1,5.380951E0,9.353928E0,4.5582657E1,9.02713E0,6.3179626E0,4.9432983E0,2.6867592E1,9.21405E0,2.765808E-1,1.0712891E0,8.999222E0,4.1283913E0,9.953642E0,5.9059258E0,5.375641E0,4.213318E0,2.4087334E0,6.7047043E0,1.7054062E0,5.236412E0,8.57267E0,6.403122E-1,0E0,0E0,0E0,0E0,1.3592682E0,4.11651E0,2.655655E0,1.8687553E0,4.413558E0,7.330325E0,2.947147E0,0E0,0E0,3.0213585E0,4.7534637E0,4.321474E0,3.535347E0,2.695076E0,3.4042168E0,3.764E-1,8.784256E-1,0E0,1.6527481E0,1.889756E0,0E0,2.322857E0,6.5663033E0,0E0,0E0,0E0,0E0,0E0,0E0,0E0,0E0,0E0,0E0,0E0,0E0,0E0,0E0,0E0,0E0,0E0,0E0,0E0,0E0,0E0,0E0,0E0,0E0,0E0,0E0,0E0,0E0,0E0,0E0,0E0,0E0,0E0,0E0,0E0,0E0,0E0,0E0,0E0,0E0],"parents":[2147483647,0,0,1,1,2,2,3,3,4,4,5,5,6,6,7,7,8,8,9,9,10,10,11,11,12,12,13,13,14,14,15,15,16,16,17,17,18,18,19,19,20,20,21,21,22,22,23,23,24,24,25,25,26,26,27,27,32,32,33,33,34,34,35,35,36,36,37,37,38,38,41,41,42,42,43,43,44,44,45,45,46,46,47,47,48,48,50,50,51,51,53,53,54,54],"right_children":[2,4,6,8,10,12,14,16,18,20,22,24,26,28,30,32,34,36,38,40,42,44,46,48,50,52,54,56,-1,-1,-1,-1,58,60,62,64,66,68,70,-1,-1,72,74,76,78,80,82,84,86,-1,88,90,-1,92,94,-1,-1,-1,-1,-1,-1,-1,-1,-1,-1,-1,-1,-1,-1,-1,-1,-1,-1,-1,-1,-1,-1,-1,-1,-1,-1,-1,-1,-1,-1,-1,-1,-1,-1,-1,-1,-1,-1,-1,-1],"split_conditions":[1.6E1,2.48E2,4E0,1.28E2,1.3386E2,2.44E2,2.56E2,1.5E1,1.2307E2,1.165E1,1.7133E2,8.1E1,7.7E1,3.63E2,1.2973E2,1.032E2,1.2225E2,1.13E2,1.85E2,4.53E2,3.59E2,1.398E2,3.25E2,1.19E2,1.0939E2,4.7E2,1.6536E2,5.3E1,-1.3761185E-2,-6.5870486E-2,-5.0897576E-2,-3.6985096E-2,2.5523E2,1.2052E2,1.24E2,1.165E1,1.1856E2,3.5774E2,2.21E2,6.345313E-2,2.8389141E-2,3.814E1,3.88E2,3.59E2,3.61E2,7E0,3.37E2,1.4889E2,1.1772E2,-5.5763196E-2,1.4309E2,2.1929E2,2.8639859E-2,1.81E2,3.1692E2,-3.4414183E-2,-5.6022055E-2,-1.8238535E-2,-3.0436248E-2,-2.4625536E-3,2.6586572E-2,-1.0770512E-2,-1.8824741E-2,8.313227E-3,2.554121E-2,4.0011513E-3,2.20154E-2,5.158759E-3,-1.1541219E-2,-6.213916E-3,3.5999573E-4,-1.3920915E-3,2.265927E-2,4.366411E-2,2.8042858E-2,2.3521539E-2,7.967504E-3,1.8590562E-2,2.7226374E-2,1.0914173E-2,-1.3235845E-2,3.206457E-2,1.4867539E-2,-5.5680435E-2,-3.9244108E-2,-1.4054102E-2,-2.5570353E-2,-2.6428038E-2,-4.286947E-2,-5.977157E-3,1.5060882E-2,-2.7317718E-2,-5.592664E-2,-1.2611377E-2,-2.9952396E-2],"split_indices":[4,3,0,3,1,3,4,3,1,2,1,4,4,3,2,2,1,2,3,3,3,2,3,3,2,3,1,4,0,0,0,0,2,1,3,2,1,1,3,0,0,2,3,3,3,4,3,1,2,0,2,2,0,4,1,0,0,0,0,0,0,0,0,0,0,0,0,0,0,0,0,0,0,0,0,0,0,0,0,0,0,0,0,0,0,0,0,0,0,0,0,0,0,0,0],"split_type":[0,0,0,0,0,0,0,0,0,0,0,0,0,0,0,0,0,0,0,0,0,0,0,0,0,0,0,0,0,0,0,0,0,0,0,0,0,0,0,0,0,0,0,0,0,0,0,0,0,0,0,0,0,0,0,0,0,0,0,0,0,0,0,0,0,0,0,0,0,0,0,0,0,0,0,0,0,0,0,0,0,0,0,0,0,0,0,0,0,0,0,0,0,0,0],"sum_hessian":[6.822582E3,5.835579E3,9.870029E2,3.7472585E3,2.0883206E3,7.709675E2,2.1603534E2,1.741172E3,2.0060864E3,6.8213635E2,1.4061842E3,3.737666E2,3.9720096E2,9.301013E1,1.2302521E2,1.9278168E2,1.5483903E3,3.5757755E2,1.6485089E3,5.391779E1,6.282185E2,6.902871E2,7.1589716E2,2.3135081E2,1.424158E2,9.710064E1,3.001003E2,7.392086E1,1.9089273E1,9.771681E1,2.5308395E1,1.1167177E1,1.8161449E2,2.3778903E2,1.3106013E3,2.2147166E2,1.3610587E2,8.9242725E2,7.5608167E2,2.9393984E1,2.4523804E1,2.8153403E2,3.4668448E2,1.8739204E2,5.0289502E2,2.1799126E2,4.9790588E2,8.300198E1,1.4834883E2,2.7140636E1,1.1527517E2,8.244939E1,1.4651247E1,4.4822277E1,2.5527803E2,1.0121303E1,6.3799557E1,1.5183496E2,2.9779524E1,2.2589961E2,1.1889409E1,1.1972676E3,1.133337E2,1.8378162E1,2.030935E2,6.948172E1,6.6624146E1,8.2195325E2,7.0474E1,4.970064E2,2.5907523E2,1.3606014E1,2.6792804E2,6.360106E1,2.8308344E2,7.496368E1,1.12428375E2,2.3567633E2,2.672187E2,2.0658157E2,1.140968E1,3.0642849E1,4.6726303E2,1.0470153E1,7.253183E1,2.3946896E1,1.2440193E2,2.6347609E1,8.892756E1,7.08883E1,1.156109E1,1.3176185E1,3.1646093E1,8.295854E1,1.7231949E2],"tree_param":{"num_deleted":"0","num_feature":"9","num_nodes":"95","size_leaf_vector":"1"}},{"base_weights":[-4.00168E-3,1.1222484E-1,-6.474089E-1,-5.0578803E-2,3.9631683E-1,-8.513741E-1,-3.6582768E-1,-1.9824688E-1,8.472479E-2,5.2169067E-1,3.3320338E-1,-6.263402E-1,-1.0820122E0,-4.4881764E-1,1.7424427E-1,-4.324618E-1,-1.6864634E-1,4.8846376E-1,3.236064E-2,8.8001E-1,4.899171E-1,3.8802004E-1,2.722798E-1,-5.1063817E-2,-5.969053E-1,-1.2778362E0,-9.117932E-1,-3.9393148E-1,-7.5138587E-1,3.4713396E-1,-1.4831036E-2,-3.470503E-2,-4.08568E-1,2.0718696E-2,-2.058363E-1,6.05186E-1,3.5439116E-1,1.03390545E-1,-6.605428E-2,6.0475197E-2,2.2836298E-2,4.7245762E-1,5.3315718E-2,3.090064E-1,4.472882E-1,2.817497E-1,-9.20072E-3,-6.4236E-1,-4.336398E-1,-4.4767935E-2,-6.509697E-2,-8.113452E-1,-1.0472175E0,-4.604435E-1,-1.6528632E-1,-4.0824268E-2,-2.5664195E-2,5.3547937E-1,-5.613417E-3,-1.2891236E-2,-2.2547297E-2,-1.712065E-2,3.5405017E-3,-8.873369E-3,-1.3620915E-2,1.475729E-2,3.274017E-2,1.3418487E-2,3.8057353E-2,6.027496E-3,-1.11429645E-2,-8.7063335E-4,-8.556395E-3,1.6201306E-2,2.5872184E-2,1.6178682E-2,-3.7458744E-3,1.6104942E-2,2.6973594E-2,9.3392385E-3,1.6268393E-2,-2.8583182E-2,-4.160131E-2,-7.8057772E-3,-2.8005177E-2,-4.9488466E-2,-3.6040198E-2,-5.601842E-2,-4.0991917E-2,-1.7792562E-2,-2.608166E-2,-1.1568092E-2,1.0586411E-2,1.1198567E-2,4.072558E-2],"categories":[],"categories_nodes":[],"categories_segments":[],"categories_sizes":[],"default_left":[0,0,0,0,0,0,0,0,0,0,0,0,0,0,0,0,0,0,0,0,0,0,0,0,0,0,0,0,0,0,0,0,0,0,0,0,0,0,0,0,0,0,0,0,0,0,0,0,0,0,0,0,0,0,0,0,0,0,0,0,0,0,0,0,0,0,0,0,0,0,0,0,0,0,0,0,0,0,0,0,0,0,0,0,0,0,0,0,0,0,0,0,0,0,0],"id":10,"left_children":[1,3,5,7,9,11,13,15,17,19,21,23,25,27,29,31,33,35,37,39,41,43,45,-1,47,49,51,53,55,57,-1,-1,59,61,63,65,67,69,71,-1,-1,73,-1,75,77,79,-1,81,83,-1,-1,85,87,89,91,-1,-1,93,-1,-1,-1,-1,-1,-1,-1,-1,-1,-1,-1,-1,-1,-1,-1,-1,-1,-1,-1,-1,-1,-1,-1,-1,-1,-1,-1,-1,-1,-1,-1,-1,-1,-1,-1,-1,-1],"loss_changes":[5.0845618E2,2.6638025E2,5.9436493E1,7.318128E1,1.642804E1,3.0595459E1,1.9743687E1,1.2068199E1,4.0399128E1,7.547165E0,4.5642853E0,2.9633713E0,8.707947E0,6.024521E0,4.9191995E0,9.407959E-1,1.0965076E1,3.218979E0,1.1843287E1,7.233116E0,5.99675E0,3.2977371E0,2.928074E0,0E0,1.86203E0,8.111572E-2,1.3533478E0,4.855133E0,4.6966553E-1,3.8442469E0,0E0,0E0,1.0457077E0,4.6880207E0,2.4090385E0,1.5893135E0,3.453003E0,5.5346375E0,3.6278622E0,0E0,0E0,4.0307007E0,0E0,1.8010769E0,4.6386337E0,2.641983E0,0E0,2.5218582E0,2.2252302E0,0E0,0E0,8.603821E-1,1.7138672E-1,1.4184036E0,1.908133E0,0E0,0E0,2.5286932E0,0E0,0E0,0E0,0E0,0E0,0E0,0E0,0E0,0E0,0E0,0E0,0E0,0E0,0E0,0E0,0E0,0E0,0E0,0E0,0E0,0E0,0E0,0E0,0E0,0E0,0E0,0E0,0E0,0E0,0E0,0E0,0E0,0E0,0E0,0E0,0E0,0E0],"parents":[2147483647,0,0,1,1,2,2,3,3,4,4,5,5,6,6,7,7,8,8,9,9,10,10,11,11,12,12,13,13,14,14,15,15,16,16,17,17,18,18,19,19,20,20,21,21,22,22,24,24,25,25,26,26,27,27,28,28,29,29,32,32,33,33,34,34,35,35,36,36,37,37,38,38,41,41,43,43,44,44,45,45,47,47,48,48,51,51,52,52,53,53,54,54,57,57],"right_children":[2,4,6,8,10,12,14,16,18,20,22,24,26,28,30,32,34,36,38,40,42,44,46,-1,48,50,52,54,56,58,-1,-1,60,62,64,66,68,70,72,-1,-1,74,-1,76,78,80,-1,82,84,-1,-1,86,88,90,92,-1,-1,94,-1,-1,-1,-1,-1,-1,-1,-1,-1,-1,-1,-1,-1,-1,-1,-1,-1,-1,-1,-1,-1,-1,-1,-1,-1,-1,-1,-1,-1,-1,-1,-1,-1,-1,-1,-1,-1],"split_conditions":[1.1E1,2.44E2,1.4E2,1.31E2,1.3245E2,3E0,3.58E2,1.5E1,1.13E2,1.165E1,1.7158E2,3.814E1,8.498E1,4.64E2,3E0,1.0939E2,1.2266E2,1.0234E2,1.88E2,4.53E2,1.2973E2,1.4741E2,2E0,-5.1063817E-2,2.72E2,1.1E2,4E0,2.6E2,2.78E2,1.8107E2,-1.4831036E-2,-3.470503E-2,1.3831E2,2.978E1,1.9753E2,1.165E1,2.19E2,3.5994E2,1.8944E2,6.0475197E-2,2.2836298E-2,3.02E2,5.3315718E-2,1.4734E2,3.51E2,3.25E2,-9.20072E-3,1.88E2,3.52E2,-4.4767935E-2,-6.509697E-2,1.47E2,6.9E1,1.4439E2,4.26E2,-4.0824268E-2,-2.5664195E-2,4.66E2,-5.613417E-3,-1.2891236E-2,-2.2547297E-2,-1.712065E-2,3.5405017E-3,-8.873369E-3,-1.3620915E-2,1.475729E-2,3.274017E-2,1.3418487E-2,3.8057353E-2,6.027496E-3,-1.11429645E-2,-8.7063335E-4,-8.556395E-3,1.6201306E-2,2.5872184E-2,1.6178682E-2,-3.7458744E-3,1.6104942E-2,2.6973594E-2,9.3392385E-3,1.6268393E-2,-2.8583182E-2,-4.160131E-2,-7.8057772E-3,-2.8005177E-2,-4.9488466E-2,-3.6040198E-2,-5.601842E-2,-4.0991917E-2,-1.7792562E-2,-2.608166E-2,-1.1568092E-2,1.0586411E-2,1.1198567E-2,4.072558E-2],"split_indices":[4,5,5,3,7,0,5,3,7,7,7,7,7,3,0,7,7,7,3,3,7,7,4,0,3,4,0,5,5,7,0,0,7,7,7,7,3,7,7,0,0,3,0,7,5,3,0,3,3,0,0,3,5,7,3,0,0,3,0,0,0,0,0,0,0,0,0,0,0,0,0,0,0,0,0,0,0,0,0,0,0,0,0,0,0,0,0,0,0,0,0,0,0,0,0],"split_type":[0,0,0,0,0,0,0,0,0,0,0,0,0,0,0,0,0,0,0,0,0,0,0,0,0,0,0,0,0,0,0,0,0,0,0,0,0,0,0,0,0,0,0,0,0,0,0,0,0,0,0,0,0,0,0,0,0,0,0,0,0,0,0,0,0,0,0,0,0,0,0,0,0,0,0,0,0,0,0,0,0,0,0,0,0,0,0,0,0,0,0,0,0,0,0],"sum_hessian":[6.7973E3,5.7579893E3,1.0393104E3,3.6608818E3,2.0971074E3,6.015502E2,4.3776025E2,1.750237E3,1.9106448E3,6.997665E2,1.397341E3,3.063549E2,2.9519528E2,3.7959836E2,5.8161877E1,1.948526E2,1.5553845E3,2.1840059E2,1.6922441E3,5.4822453E1,6.4494403E2,7.3270874E2,6.6463214E2,1.8911964E1,2.8744293E2,1.342471E2,1.6094817E2,3.2326056E2,5.6337807E1,4.273386E1,1.5428017E1,1.3958346E1,1.8089426E2,2.5539572E2,1.2999888E3,1.1487646E2,1.0352414E2,9.8283966E2,7.0940454E2,2.9782026E1,2.5040426E1,6.277487E2,1.7195301E1,3.167052E2,4.1600354E2,6.5149365E2,1.3138497E1,2.2254875E2,6.489417E1,1.0219933E1,1.24027176E2,9.642112E1,6.452705E1,2.4963026E2,7.3630295E1,4.233409E1,1.4003717E1,3.0190699E1,1.254316E1,4.124938E1,1.3964488E2,3.025192E1,2.251438E2,9.1415546E2,3.8583328E2,1.6806631E1,9.8069824E1,8.682254E1,1.6701601E1,9.343284E2,4.8511257E1,4.8571756E2,2.2368697E2,1.4791293E2,4.798358E2,3.0527917E2,1.14260435E1,1.7832484E2,2.3767868E2,2.0671613E2,4.4477753E2,1.6504411E2,5.7504642E1,2.1013845E1,4.3880333E1,2.9114761E1,6.730636E1,4.584939E1,1.867766E1,9.4653496E1,1.5497676E2,6.2978947E1,1.0651348E1,1.5116974E1,1.5073725E1],"tree_param":{"num_deleted":"0","num_feature":"9","num_nodes":"95","size_leaf_vector":"1"}},{"base_weights":[-2.728636E-3,-1.8633664E-1,3.6890882E-1,-6.086384E-2,-6.293736E-1,4.11416E-1,1.14890775E-2,-2.0645651E-1,7.4132144E-2,-4.3894506E-1,-9.327199E-1,5.490694E-1,3.4221554E-1,1.6973475E-1,-2.2112332E-1,-8.4628835E-2,-2.454488E-1,3.600611E-1,9.391744E-3,-5.268594E-1,-3.1051773E-1,-1.0767217E0,-6.5711117E-1,9.903842E-1,5.1125336E-1,2.4208674E-1,3.803484E-1,4.622454E-2,6.880087E-1,-1.2579632E-1,-4.8328188E-1,-4.3218747E-1,-4.364855E-2,-2.5512847E-1,-5.4171328E-2,-1.2019571E-2,3.8153365E-1,7.860786E-2,-8.3963096E-2,-4.9833648E-2,-4.9642533E-1,-4.116737E-2,-3.8877115E-1,-6.209259E-2,-9.285574E-1,-1.2953664E-2,-6.990367E-1,5.6421544E-2,2.8796334E-2,3.9917046E-1,5.835075E-1,3.255856E-1,1.685676E-1,2.8626302E-1,3.97175E-1,1.5657476E-1,-1.4790407E-1,4.3576542E-2,2.3004634E-2,-2.2430329E-1,1.6813409E-2,-3.0401954E-2,-1.5812006E-2,-3.357243E-2,-1.569655E-2,-2.09209E-2,-6.010358E-4,-1.1332207E-2,-1.57518E-2,2.7459865E-3,-1.7320987E-2,2.6625989E-2,1.569188E-2,6.5133753E-3,1.4576867E-4,-1.4633124E-3,-1.1934132E-2,-1.5473462E-2,-2.720807E-2,-6.9927997E-3,1.7121194E-2,-2.2032043E-2,-3.1423898E-4,-4.3211322E-2,-5.7132073E-2,-3.8163453E-2,-2.5375605E-2,-3.260579E-4,2.123391E-2,2.64958E-2,4.4525545E-2,5.6986525E-3,1.8557495E-2,-8.149072E-3,9.883313E-3,1.8391006E-2,2.7592173E-3,6.5663934E-2,1.9192351E-2,4.051223E-3,2.4590457E-2,-1.6415957E-2,2.1359266E-3,-1.8990146E-2,-3.8288047E-3],"categories":[],"categories_nodes":[],"categories_segments":[],"categories_sizes":[],"default_left":[0,0,0,0,0,0,0,0,0,0,0,0,0,0,0,0,0,0,0,0,0,0,0,0,0,0,0,0,0,0,0,0,0,0,0,0,0,0,0,0,0,0,0,0,0,0,0,0,0,0,0,0,0,0,0,0,0,0,0,0,0,0,0,0,0,0,0,0,0,0,0,0,0,0,0,0,0,0,0,0,0,0,0,0,0,0,0,0,0,0,0,0,0,0,0,0,0,0,0,0,0,0,0,0,0],"id":11,"left_children":[1,3,5,7,9,11,13,15,17,19,21,23,25,27,29,31,33,35,37,39,41,43,45,47,49,51,53,55,57,59,61,63,65,67,69,-1,71,73,75,-1,77,79,81,-1,83,-1,85,-1,-1,87,89,91,93,95,97,99,101,-1,-1,103,-1,-1,-1,-1,-1,-1,-1,-1,-1,-1,-1,-1,-1,-1,-1,-1,-1,-1,-1,-1,-1,-1,-1,-1,-1,-1,-1,-1,-1,-1,-1,-1,-1,-1,-1,-1,-1,-1,-1,-1,-1,-1,-1,-1,-1],"loss_changes":[4.6169803E2,2.5171202E2,3.3988678E1,6.940246E1,5.732257E1,1.8859772E1,8.829275E0,8.049011E0,3.3919758E1,6.789955E0,1.4554291E1,1.0629959E1,4.9987946E0,9.103258E0,2.3666472E0,5.86937E0,2.367897E0,4.453537E0,9.668561E0,4.712181E0,5.3104115E0,4.9881897E0,2.0639877E0,2.3023682E0,4.761307E0,2.219429E0,1.4122009E0,2.5149024E0,7.4475384E-1,3.3791912E0,3.4016085E-1,1.019762E0,4.3915367E0,2.0174942E0,2.034938E0,0E0,3.1752853E0,3.3591652E0,5.3846765E0,0E0,2.901657E0,2.2438495E0,3.879757E0,0E0,8.891907E-1,0E0,1.102726E0,0E0,0E0,2.5369453E0,5.6617584E0,1.6199245E0,1.9529543E0,2.8029623E0,9.447311E0,1.8507236E0,1.4814968E0,0E0,0E0,1.3590574E0,0E0,0E0,0E0,0E0,0E0,0E0,0E0,0E0,0E0,0E0,0E0,0E0,0E0,0E0,0E0,0E0,0E0,0E0,0E0,0E0,0E0,0E0,0E0,0E0,0E0,0E0,0E0,0E0,0E0,0E0,0E0,0E0,0E0,0E0,0E0,0E0,0E0,0E0,0E0,0E0,0E0,0E0,0E0,0E0,0E0],"parents":[2147483647,0,0,1,1,2,2,3,3,4,4,5,5,6,6,7,7,8,8,9,9,10,10,11,11,12,12,13,13,14,14,15,15,16,16,17,17,18,18,19,19,20,20,21,21,22,22,23,23,24,24,25,25,26,26,27,27,28,28,29,29,30,30,31,31,32,32,33,33,34,34,36,36,37,37,38,38,40,40,41,41,42,42,44,44,46,46,49,49,50,50,51,51,52,52,53,53,54,54,55,55,56,56,59,59],"right_children":[2,4,6,8,10,12,14,16,18,20,22,24,26,28,30,32,34,36,38,40,42,44,46,48,50,52,54,56,58,60,62,64,66,68,70,-1,72,74,76,-1,78,80,82,-1,84,-1,86,-1,-1,88,90,92,94,96,98,100,102,-1,-1,104,-1,-1,-1,-1,-1,-1,-1,-1,-1,-1,-1,-1,-1,-1,-1,-1,-1,-1,-1,-1,-1,-1,-1,-1,-1,-1,-1,-1,-1,-1,-1,-1,-1,-1,-1,-1,-1,-1,-1,-1,-1,-1,-1,-1,-1],"split_conditions":[2.44E2,2E0,2E0,1.31E2,3E0,1.3322E2,3.526E2,1.3245E2,1.2307E2,1.4E2,1.02E2,1.165E1,3.16E2,4.33E2,4.64E2,1.5E1,8.3333336E-2,1.36E2,1.88E2,6.716E1,1.84E2,8.498E1,1.78E2,4.79E2,3.42E2,1.6536E2,1.4061E2,4.23E2,2.0835E2,3.86E2,2.0374E2,1.09E2,2.564E1,1.9782E2,3.0941E2,-1.2019571E-2,9.876E1,1.7211E2,2.1506E2,-4.9833648E-2,2.5846E2,1.69E2,2.25E2,-6.209259E-2,5E0,-1.2953664E-2,1.86E2,5.6421544E-2,2.8796334E-2,3.971E1,1.2655E2,1.3689E2,2.49E2,1.3868E2,1.4213E2,3.7E2,3.58E2,4.3576542E-2,2.3004634E-2,2.99E2,1.6813409E-2,-3.0401954E-2,-1.5812006E-2,-3.357243E-2,-1.569655E-2,-2.09209E-2,-6.010358E-4,-1.1332207E-2,-1.57518E-2,2.7459865E-3,-1.7320987E-2,2.6625989E-2,1.569188E-2,6.5133753E-3,1.4576867E-4,-1.4633124E-3,-1.1934132E-2,-1.5473462E-2,-2.720807E-2,-6.9927997E-3,1.7121194E-2,-2.2032043E-2,-3.1423898E-4,-4.3211322E-2,-5.7132073E-2,-3.8163453E-2,-2.5375605E-2,-3.260579E-4,2.123391E-2,2.64958E-2,4.4525545E-2,5.6986525E-3,1.8557495E-2,-8.149072E-3,9.883313E-3,1.8391006E-2,2.7592173E-3,6.5663934E-2,1.9192351E-2,4.051223E-3,2.4590457E-2,-1.6415957E-2,2.1359266E-3,-1.8990146E-2,-3.8288047E-3],"split_indices":[5,0,0,3,0,1,1,7,1,5,5,7,3,5,3,3,8,3,3,1,3,7,3,3,5,1,7,3,1,5,7,1,1,1,1,0,1,7,7,0,1,5,5,0,0,0,5,0,0,1,7,7,5,7,7,5,5,0,0,5,0,0,0,0,0,0,0,0,0,0,0,0,0,0,0,0,0,0,0,0,0,0,0,0,0,0,0,0,0,0,0,0,0,0,0,0,0,0,0,0,0,0,0,0,0],"split_type":[0,0,0,0,0,0,0,0,0,0,0,0,0,0,0,0,0,0,0,0,0,0,0,0,0,0,0,0,0,0,0,0,0,0,0,0,0,0,0,0,0,0,0,0,0,0,0,0,0,0,0,0,0,0,0,0,0,0,0,0,0,0,0,0,0,0,0,0,0,0,0,0,0,0,0,0,0,0,0,0,0,0,0,0,0,0,0,0,0,0,0,0,0,0,0,0,0,0,0,0,0,0,0,0,0],"sum_hessian":[6.7642256E3,4.5277725E3,2.2364536E3,3.529358E3,9.984144E2,1.9986118E3,2.3784175E2,1.6977795E3,1.8315782E3,6.1487054E2,3.8354388E2,6.662915E2,1.3323203E3,1.4170827E2,9.6133484E1,4.1241107E2,1.2853684E3,3.373029E2,1.4942754E3,3.631651E2,2.5170543E2,2.5001022E2,1.3353366E2,5.0599888E1,6.156916E2,3.6948355E2,9.6283673E2,1.1531634E2,2.6391924E1,7.1583786E1,2.4549702E1,4.249128E1,3.6991977E2,1.2231373E3,6.223106E1,1.1293683E1,3.260092E2,8.581643E2,6.361111E2,2.0162733E1,3.4300238E2,5.7008083E1,1.9469736E2,1.1474479E2,1.3526544E2,1.3409017E1,1.2012465E2,3.666494E1,1.3934946E1,2.4388863E2,3.71803E2,1.7139465E2,1.980889E2,1.4880595E2,8.1403076E2,7.364635E1,4.166999E1,1.3055493E1,1.333643E1,5.9428795E1,1.2154991E1,1.2542293E1,1.2007409E1,1.250757E1,2.998371E1,2.783722E1,3.4208255E2,8.3222253E2,3.9091486E2,4.5906914E1,1.6324146E1,9.879502E1,2.2721417E2,5.0962643E2,3.4853787E2,4.708457E2,1.6526541E2,7.12882E1,2.7171417E2,4.584794E1,1.1160147E1,1.713132E2,2.3384155E1,1.0788386E2,2.7381578E1,8.7720314E1,3.2404327E1,1.4471346E1,2.2941728E2,3.1886673E2,5.293628E1,3.0986496E1,1.4040816E2,1.5611476E1,1.8247742E2,1.09549644E2,3.92563E1,1.0274538E1,8.037562E2,6.1114857E1,1.2531491E1,2.103707E1,2.063292E1,2.8187393E1,3.1241402E1],"tree_param":{"num_deleted":"0","num_feature":"9","num_nodes":"105","size_leaf_vector":"1"}},{"base_weights":[4.63639E-3,1.1012229E-1,-6.015246E-1,-4.852647E-2,3.769291E-1,-5.032762E-1,-9.905846E-1,-1.7997874E-1,8.043553E-2,5.3175634E-1,3.0481687E-1,-3.5246068E-1,-6.2602663E-1,-7.7245826E-1,-1.1542516E0,-3.5143343E-1,-1.5961182E-1,4.5846832E-1,3.9378803E-2,8.8262945E-1,4.9879315E-1,1.8438165E-1,3.3092093E-1,-5.0567025E-1,1.8585257E-2,-9.1437393E-1,-5.6956303E-1,-9.339931E-1,-8.32305E-3,-6.0620684E-2,-4.8650246E-2,-2.8454749E-2,-3.3323252E-1,-5.4156113E-2,-1.9460541E-1,5.333911E-1,3.4542605E-1,1.00947335E-1,-6.195869E-2,1.0984757E0,2.1800725E-2,3.508256E-1,5.5017495E-1,3.3759114E-1,9.859258E-2,3.1866536E-1,5.190621E-1,-7.144791E-1,-3.525877E-1,2.546739E-2,-1.0121713E-1,-5.0844092E-2,-6.8324363E-1,-7.531531E-1,-4.803258E-1,-3.4141764E-2,-1.0294245E0,-6.2189356E-4,-1.8074373E-2,-8.4411463E-4,-1.2626086E-2,-3.874895E-2,-9.4274515E-3,3.3902284E-2,2.0633971E-2,8.958881E-3,3.260173E-2,8.526263E-3,4.2990307E-4,-2.3216184E-3,-2.6600054E-2,3.095833E-2,6.272011E-2,-3.3406988E-3,2.031007E-2,3.049904E-2,2.4712443E-2,-4.003475E-3,2.261148E-2,-1.3122672E-3,9.346847E-3,1.802236E-2,1.1598773E-2,3.2106668E-2,1.4689973E-3,-4.196613E-2,-3.2194607E-2,-7.1107666E-3,-2.0598529E-2,-8.693553E-3,1.5240836E-2,-1.7774614E-2,-4.5028124E-2,-2.9405028E-2,-4.084374E-2,-1.36060165E-2,-2.864242E-2,-5.5008363E-2,-3.6532596E-2],"categories":[],"categories_nodes":[],"categories_segments":[],"categories_sizes":[],"default_left":[0,0,0,0,0,0,0,0,0,0,0,0,0,0,0,0,0,0,0,0,0,0,0,0,0,0,0,0,0,0,0,0,0,0,0,0,0,0,0,0,0,0,0,0,0,0,0,0,0,0,0,0,0,0,0,0,0,0,0,0,0,0,0,0,0,0,0,0,0,0,0,0,0,0,0,0,0,0,0,0,0,0,0,0,0,0,0,0,0,0,0,0,0,0,0,0,0,0,0],"id":12,"left_children":[1,3,5,7,9,11,13,15,17,19,21,23,25,27,29,31,33,35,37,39,41,43,45,47,49,51,53,55,-1,-1,-1,-1,57,59,61,63,65,67,69,71,-1,73,75,77,79,81,83,85,87,-1,89,-1,91,93,95,-1,97,-1,-1,-1,-1,-1,-1,-1,-1,-1,-1,-1,-1,-1,-1,-1,-1,-1,-1,-1,-1,-1,-1,-1,-1,-1,-1,-1,-1,-1,-1,-1,-1,-1,-1,-1,-1,-1,-1,-1,-1,-1,-1],"loss_changes":[4.31361E2,2.4324576E2,3.7724976E1,6.11169E1,2.3762299E1,1.4596848E1,6.268997E0,6.178032E0,2.8231434E1,7.419449E0,4.542404E0,2.0555943E1,6.6423645E0,8.55732E0,6.9885254E-3,5.5800056E-1,5.8848076E0,1.3251419E0,1.0256581E1,5.021614E0,4.547333E0,3.4247818E0,2.6065063E0,7.926033E0,6.3184557E0,9.7304535E-1,5.7093735E0,9.762192E-1,0E0,0E0,0E0,0E0,1.5959339E0,2.9489813E0,4.068737E0,1.5595989E0,3.648779E0,6.567671E0,4.511258E0,2.0491257E0,0E0,3.8076096E0,1.2405396E0,4.538206E0,1.880564E0,4.0137787E0,4.3160496E0,4.0467453E-1,1.8101997E0,0E0,2.605025E0,0E0,1.4374342E0,7.758789E-1,4.7009926E0,0E0,2.2753143E-1,0E0,0E0,0E0,0E0,0E0,0E0,0E0,0E0,0E0,0E0,0E0,0E0,0E0,0E0,0E0,0E0,0E0,0E0,0E0,0E0,0E0,0E0,0E0,0E0,0E0,0E0,0E0,0E0,0E0,0E0,0E0,0E0,0E0,0E0,0E0,0E0,0E0,0E0,0E0,0E0,0E0,0E0],"parents":[2147483647,0,0,1,1,2,2,3,3,4,4,5,5,6,6,7,7,8,8,9,9,10,10,11,11,12,12,13,13,14,14,15,15,16,16,17,17,18,18,19,19,20,20,21,21,22,22,23,23,24,24,25,25,26,26,27,27,32,32,33,33,34,34,35,35,36,36,37,37,38,38,39,39,41,41,42,42,43,43,44,44,45,45,46,46,47,47,48,48,50,50,52,52,53,53,54,54,56,56],"right_children":[2,4,6,8,10,12,14,16,18,20,22,24,26,28,30,32,34,36,38,40,42,44,46,48,50,52,54,56,-1,-1,-1,-1,58,60,62,64,66,68,70,72,-1,74,76,78,80,82,84,86,88,-1,90,-1,92,94,96,-1,98,-1,-1,-1,-1,-1,-1,-1,-1,-1,-1,-1,-1,-1,-1,-1,-1,-1,-1,-1,-1,-1,-1,-1,-1,-1,-1,-1,-1,-1,-1,-1,-1,-1,-1,-1,-1,-1,-1,-1,-1,-1,-1],"split_conditions":[1.3E1,2.37E2,4E0,1.33E2,1.3261E2,8.1E1,2.56E2,1.5E1,1.1155E2,1.298E1,2.85E2,2.61E2,9.44E1,3.63E2,9.05E1,1.0939E2,1.3245E2,1.0234E2,1.7211E2,4.68E2,3.02E2,1.572E2,6E-1,1.35E2,2.231E2,4.23E2,2.44E2,8.9E1,-8.32305E-3,-6.0620684E-2,-4.8650246E-2,-2.8454749E-2,1.2093E2,1.21E2,1.3292E2,1.69E2,1.84E2,1.85E2,3E0,4.28E2,2.1800725E-2,8.4E1,3.98E2,1.3674E2,1.8259E2,1.9581E2,4.59E2,1.3142E2,1.2784E2,2.546739E-2,6.2E1,-5.0844092E-2,2.5E2,1.4741E2,3.1692E2,-3.4141764E-2,2.78E2,-6.2189356E-4,-1.8074373E-2,-8.4411463E-4,-1.2626086E-2,-3.874895E-2,-9.4274515E-3,3.3902284E-2,2.0633971E-2,8.958881E-3,3.260173E-2,8.526263E-3,4.2990307E-4,-2.3216184E-3,-2.6600054E-2,3.095833E-2,6.272011E-2,-3.3406988E-3,2.031007E-2,3.049904E-2,2.4712443E-2,-4.003475E-3,2.261148E-2,-1.3122672E-3,9.346847E-3,1.802236E-2,1.1598773E-2,3.2106668E-2,1.4689973E-3,-4.196613E-2,-3.2194607E-2,-7.1107666E-3,-2.0598529E-2,-8.693553E-3,1.5240836E-2,-1.7774614E-2,-4.5028124E-2,-2.9405028E-2,-4.084374E-2,-1.36060165E-2,-2.864242E-2,-5.5008363E-2,-3.6532596E-2],"split_indices":[4,3,0,3,1,4,4,3,1,2,3,3,2,3,2,2,2,2,2,3,3,1,8,3,1,3,3,4,0,0,0,0,1,3,2,3,3,3,4,3,0,1,3,1,2,2,3,2,2,0,4,0,4,2,1,0,3,0,0,0,0,0,0,0,0,0,0,0,0,0,0,0,0,0,0,0,0,0,0,0,0,0,0,0,0,0,0,0,0,0,0,0,0,0,0,0,0,0,0],"split_type":[0,0,0,0,0,0,0,0,0,0,0,0,0,0,0,0,0,0,0,0,0,0,0,0,0,0,0,0,0,0,0,0,0,0,0,0,0,0,0,0,0,0,0,0,0,0,0,0,0,0,0,0,0,0,0,0,0,0,0,0,0,0,0,0,0,0,0,0,0,0,0,0,0,0,0,0,0,0,0,0,0,0,0,0,0,0,0,0,0,0,0,0,0,0,0,0,0,0,0],"sum_hessian":[6.7441523E3,5.745178E3,9.989743E2,3.603363E3,2.141815E3,7.993979E2,1.9957637E2,1.7842566E3,1.8191064E3,6.785573E2,1.4632577E3,3.6043082E2,4.389671E2,8.80062E1,1.1157016E2,1.8772006E2,1.5965365E3,1.7721547E2,1.641891E3,5.605968E1,6.224976E2,2.620969E2,1.2011608E3,2.5484094E2,1.05589874E2,6.939384E1,3.6957327E2,6.9057076E1,1.8949125E1,8.015813E1,3.1412033E1,1.2150216E1,1.7556984E2,3.9841928E2,1.1981173E3,1.0434114E2,7.287432E1,1.0213588E3,6.2053217E2,3.681005E1,1.924963E1,1.6246481E2,4.600328E2,9.3026695E1,1.690702E2,1.1302308E3,7.092991E1,1.06248184E2,1.4859276E2,2.0080376E1,8.55095E1,4.571799E1,2.3675846E1,1.1844772E2,2.5112553E2,2.1259995E1,4.7797085E1,1.4328636E1,1.6124121E2,3.3631015E2,6.2109135E1,1.1062428E1,1.1870548E3,4.536319E1,5.8977955E1,4.82803E1,2.4594023E1,5.82012E2,4.3934677E2,6.0175397E2,1.8778202E1,1.025565E1,2.6554401E1,1.8995533E1,1.4346928E2,2.17518E2,2.4251479E2,2.0099613E1,7.292708E1,7.035528E1,9.8714935E1,7.605241E2,3.697068E2,5.6434868E1,1.449504E1,3.444193E1,7.180626E1,3.345795E1,1.1513481E2,7.30161E1,1.2493399E1,1.0490425E1,1.318542E1,3.5841064E1,8.260666E1,7.847432E1,1.7265121E2,3.647769E1,1.1319395E1],"tree_param":{"num_deleted":"0","num_feature":"9","num_nodes":"99","size_leaf_vector":"1"}},{"base_weights":[-3.515851E-3,9.057904E-2,-5.6080467E-1,-5.522889E-2,3.255264E-1,-7.443335E-1,-3.1030992E-1,-1.8162082E-1,6.8007864E-2,5.1156646E-1,2.67799E-1,-1.0689368E0,-6.1728656E-1,-4.243441E-1,-5.5524573E-2,-5.7627566E-2,-2.2144334E-1,3.2376212E-1,1.1395466E-2,8.6052734E-1,4.7208354E-1,1.6296154E-1,3.2373428E-1,-5.8979315E-1,-1.1645856E0,-5.162638E-1,-7.826433E-1,2.740743E-3,-4.4809115E-1,-1.2764642E-1,2.6472345E-2,-3.7842864E-1,-2.1216568E-2,-3.5788032E-1,-2.0200849E-1,2.3705138E-1,4.871078E-1,7.695021E-2,-9.262617E-2,5.705137E-2,5.3129965E-1,1.1335808E-3,4.8551634E-1,1.7235094E-1,-1.3357711E-2,3.712352E-1,2.7496964E-1,-4.6176862E-2,-3.6303126E-3,-5.9836276E-2,-4.403332E-2,-2.7935213E-1,-5.544535E-1,-4.3781236E-2,-6.0592085E-1,-4.0627158E-1,-6.739607E-1,1.0473072E-2,-1.6861773E-1,-2.6923547E-2,-1.487035E-2,-2.420457E-2,8.9478875E-5,-6.9245817E-3,-1.8739646E-2,-3.6468342E-2,-9.823696E-3,1.6288508E-2,-4.1125412E-4,3.1422246E-2,1.3306362E-2,6.8724896E-3,-2.1540083E-3,-2.3626366E-3,-1.0762948E-2,1.996508E-2,3.12859E-2,2.302516E-2,3.4106966E-2,8.960408E-3,-8.674214E-3,8.492514E-3,1.9973071E-2,1.43257575E-2,-8.598181E-3,-2.610512E-2,3.3829238E-3,-3.0650755E-2,-2.1267127E-2,-1.9460728E-2,-3.5244282E-2,-3.3734813E-2,-1.8206326E-2,-4.0543906E-2,-2.822551E-2,-1.9031346E-2,-3.52387E-3],"categories":[],"categories_nodes":[],"categories_segments":[],"categories_sizes":[],"default_left":[0,0,0,0,0,0,0,0,0,0,0,0,0,0,0,0,0,0,0,0,0,0,0,0,0,0,0,0,0,0,0,0,0,0,0,0,0,0,0,0,0,0,0,0,0,0,0,0,0,0,0,0,0,0,0,0,0,0,0,0,0,0,0,0,0,0,0,0,0,0,0,0,0,0,0,0,0,0,0,0,0,0,0,0,0,0,0,0,0,0,0,0,0,0,0,0,0],"id":13,"left_children":[1,3,5,7,9,11,13,15,17,19,21,23,25,27,29,31,33,35,37,39,41,43,45,47,49,51,53,-1,55,57,-1,59,61,63,65,67,69,71,73,-1,75,-1,77,79,-1,81,83,-1,-1,-1,-1,85,87,-1,89,91,93,-1,95,-1,-1,-1,-1,-1,-1,-1,-1,-1,-1,-1,-1,-1,-1,-1,-1,-1,-1,-1,-1,-1,-1,-1,-1,-1,-1,-1,-1,-1,-1,-1,-1,-1,-1,-1,-1,-1,-1],"loss_changes":[3.532246E2,1.9744293E2,4.450284E1,5.5416077E1,2.3565979E1,2.247055E1,1.1980831E1,8.659241E0,2.6082708E1,6.7798615E0,9.837074E0,6.481079E0,6.3692474E0,3.270584E0,5.5056815E0,4.994699E0,3.451683E0,4.5089607E0,1.0073447E1,4.177269E0,2.830925E0,2.4238186E0,2.4429703E0,4.7750616E0,1.2641907E-1,2.148941E0,1.9643555E0,0E0,2.294609E0,1.6313485E0,0E0,4.0516853E-1,4.108106E0,5.581188E-1,3.2586746E0,4.6861477E0,3.3392353E0,6.5856285E0,3.1676908E0,0E0,7.0459366E-2,0E0,1.9337311E0,1.3989563E0,0E0,3.0796661E0,2.8667068E0,0E0,0E0,0E0,0E0,3.1827614E0,1.3896027E0,0E0,9.1788864E-1,2.3783302E0,1.5608978E-1,0E0,2.128483E0,0E0,0E0,0E0,0E0,0E0,0E0,0E0,0E0,0E0,0E0,0E0,0E0,0E0,0E0,0E0,0E0,0E0,0E0,0E0,0E0,0E0,0E0,0E0,0E0,0E0,0E0,0E0,0E0,0E0,0E0,0E0,0E0,0E0,0E0,0E0,0E0,0E0,0E0],"parents":[2147483647,0,0,1,1,2,2,3,3,4,4,5,5,6,6,7,7,8,8,9,9,10,10,11,11,12,12,13,13,14,14,15,15,16,16,17,17,18,18,19,19,20,20,21,21,22,22,23,23,24,24,25,25,26,26,28,28,29,29,31,31,32,32,33,33,34,34,35,35,36,36,37,37,38,38,40,40,42,42,43,43,45,45,46,46,51,51,52,52,54,54,55,55,56,56,58,58],"right_children":[2,4,6,8,10,12,14,16,18,20,22,24,26,28,30,32,34,36,38,40,42,44,46,48,50,52,54,-1,56,58,-1,60,62,64,66,68,70,72,74,-1,76,-1,78,80,-1,82,84,-1,-1,-1,-1,86,88,-1,90,92,94,-1,96,-1,-1,-1,-1,-1,-1,-1,-1,-1,-1,-1,-1,-1,-1,-1,-1,-1,-1,-1,-1,-1,-1,-1,-1,-1,-1,-1,-1,-1,-1,-1,-1,-1,-1,-1,-1,-1,-1],"split_conditions":[1.3E1,2.33E2,1.4E2,1.31E2,1.2225E2,9.696E1,2.73E2,1.3245E2,1.2355E2,1.165E1,3.22E2,8.6E1,4.7543E2,1.81E2,4.44E2,1.5E1,1.7E1,1.84E2,1.88E2,4.46E2,1.727E1,5.2989E2,1.6376E2,7.7E1,9.4E1,2.5846E2,6.9E1,2.740743E-3,6.2449E2,5.092E1,2.6472345E-2,1.09E2,1.907E1,1.3811E2,1.3292E2,1.72E2,2.16E2,1.9782E2,2.254E2,5.705137E-2,4.82E2,1.1335808E-3,1.201E2,4E0,-1.3357711E-2,1.2655E2,1E0,-4.6176862E-2,-3.6303126E-3,-5.9836276E-2,-4.403332E-2,1.75E2,1.6929E2,-4.3781236E-2,1.87E2,1.4623E2,1.67E2,1.0473072E-2,1.2626E2,-2.6923547E-2,-1.487035E-2,-2.420457E-2,8.9478875E-5,-6.9245817E-3,-1.8739646E-2,-3.6468342E-2,-9.823696E-3,1.6288508E-2,-4.1125412E-4,3.1422246E-2,1.3306362E-2,6.8724896E-3,-2.1540083E-3,-2.3626366E-3,-1.0762948E-2,1.996508E-2,3.12859E-2,2.302516E-2,3.4106966E-2,8.960408E-3,-8.674214E-3,8.492514E-3,1.9973071E-2,1.43257575E-2,-8.598181E-3,-2.610512E-2,3.3829238E-3,-3.0650755E-2,-2.1267127E-2,-1.9460728E-2,-3.5244282E-2,-3.3734813E-2,-1.8206326E-2,-4.0543906E-2,-2.822551E-2,-1.9031346E-2,-3.52387E-3],"split_indices":[4,5,5,3,1,2,5,2,1,2,5,4,1,3,5,3,5,3,3,5,2,1,2,5,5,1,5,0,1,2,0,1,2,1,2,5,5,1,1,0,3,0,1,4,0,2,4,0,0,0,0,3,2,0,3,1,5,0,2,0,0,0,0,0,0,0,0,0,0,0,0,0,0,0,0,0,0,0,0,0,0,0,0,0,0,0,0,0,0,0,0,0,0,0,0,0,0],"split_type":[0,0,0,0,0,0,0,0,0,0,0,0,0,0,0,0,0,0,0,0,0,0,0,0,0,0,0,0,0,0,0,0,0,0,0,0,0,0,0,0,0,0,0,0,0,0,0,0,0,0,0,0,0,0,0,0,0,0,0,0,0,0,0,0,0,0,0,0,0,0,0,0,0,0,0,0,0,0,0,0,0,0,0,0,0,0,0,0,0,0,0,0,0,0,0,0,0],"sum_hessian":[6.73407E3,5.762024E3,9.7204584E2,3.5559636E3,2.2060603E3,5.598741E2,4.1217178E2,1.7552751E3,1.8006885E3,5.2056274E2,1.6854976E3,1.554043E2,4.0446976E2,2.8427393E2,1.2789785E2,4.2729053E2,1.3279846E3,3.2549612E2,1.4751923E3,5.079835E1,4.6976437E2,5.8777203E2,1.0977255E3,2.705266E1,1.2835164E2,2.5363594E2,1.5083382E2,1.336155E1,2.7091238E2,1.145559E2,1.3341945E1,4.2596706E1,3.8469382E2,1.6340823E2,1.1645764E3,2.142268E2,1.11269325E2,9.0507294E2,5.701194E2,2.6097584E1,2.4700766E1,1.3711643E1,4.5605273E2,5.758016E2,1.197042E1,5.5271826E2,5.450072E2,1.5964785E1,1.1087875E1,1.1241153E2,1.594011E1,3.6364105E1,2.1727184E2,9.6241936E1,5.4591885E1,2.3095073E2,3.996166E1,1.1968436E1,1.0258746E2,1.2419136E1,3.017757E1,1.7266031E1,3.674278E2,1.235312E1,1.5105511E2,1.0736871E1,1.1538395E3,1.57081E2,5.714582E1,6.673949E1,4.452984E1,6.016665E2,3.034064E2,4.1715842E2,1.5296097E2,1.2481099E1,1.2219667E1,4.0754904E2,4.8503704E1,5.65079E2,1.072258E1,6.880865E1,4.8390964E2,5.316326E2,1.3374587E1,2.1099464E1,1.5264644E1,1.4689557E2,7.037626E1,1.8661371E1,3.5930515E1,2.9303818E1,2.0164691E2,1.4906151E1,2.5055506E1,3.1550852E1,7.103661E1],"tree_param":{"num_deleted":"0","num_feature":"9","num_nodes":"97","size_leaf_vector":"1"}},{"base_weights":[-1.864763E-3,9.151077E-2,-5.493244E-1,-4.5511894E-2,3.4036145E-1,-4.5312312E-1,-9.402383E-1,-1.7275685E-1,6.5028295E-2,4.7017127E-1,2.7793998E-1,-5.6738234E-1,-3.2492602E-1,-7.429107E-1,-5.5930614E-2,-3.456024E-2,-1.9786489E-1,2.9821843E-1,1.1079589E-2,9.1011494E-1,4.3382794E-1,3.3325344E-1,2.1668647E-1,-4.6749336E-1,-7.247068E-1,7.4426895E-3,-4.9688846E-1,-8.9542776E-1,-3.1443113E-1,-3.4914973E-1,4.763197E-3,-3.1159332E-1,-1.8383397E-1,-5.2402303E-2,3.2781896E-1,6.1332412E-2,-5.7577744E-2,5.8933645E-2,2.9549075E-2,2.2176127E-1,4.6679652E-1,3.244159E-1,3.5851624E-2,1.8768762E-1,4.9872392E-1,-7.26867E-1,-3.972888E-1,-5.048659E-2,-6.65529E-1,-8.619395E-2,4.3565515E-1,-8.9223015E-1,-4.2609337E-1,-3.2095265E-2,-4.93079E-2,-7.869767E-3,-2.5238682E-2,-2.9988674E-2,-4.3531223E-3,1.2829985E-2,-3.0762348E-3,-1.4013809E-2,-3.0348638E-2,-9.735127E-3,1.4817028E-3,4.983079E-3,-1.3171549E-2,2.3761034E-2,1.3268555E-2,4.083742E-3,-9.321093E-3,-8.135686E-3,6.1652844E-4,1.6133586E-2,-4.1624885E-3,2.2257432E-2,3.632939E-2,8.020311E-3,1.6977888E-2,9.963359E-3,-1.3738461E-2,2.97941E-2,1.3231614E-3,-3.909361E-2,-2.8018588E-2,-1.4526017E-2,-2.3762204E-2,-2.7594475E-2,-4.2371094E-2,-1.1289633E-2,-6.214942E-4,4.9045015E-2,-1.2277053E-2,-2.9633477E-2,-4.952718E-2,-1.158937E-2,-2.5864815E-2],"categories":[],"categories_nodes":[],"categories_segments":[],"categories_sizes":[],"default_left":[0,0,0,0,0,0,0,0,0,0,0,0,0,0,0,0,0,0,0,0,0,0,0,0,0,0,0,0,0,0,0,0,0,0,0,0,0,0,0,0,0,0,0,0,0,0,0,0,0,0,0,0,0,0,0,0,0,0,0,0,0,0,0,0,0,0,0,0,0,0,0,0,0,0,0,0,0,0,0,0,0,0,0,0,0,0,0,0,0,0,0,0,0,0,0,0,0],"id":14,"left_children":[1,3,5,7,9,11,13,15,17,19,21,23,25,27,-1,29,31,33,35,37,39,41,43,45,47,49,51,53,55,57,59,61,63,65,67,69,71,-1,-1,73,75,77,-1,79,81,83,85,-1,87,89,91,93,95,-1,-1,-1,-1,-1,-1,-1,-1,-1,-1,-1,-1,-1,-1,-1,-1,-1,-1,-1,-1,-1,-1,-1,-1,-1,-1,-1,-1,-1,-1,-1,-1,-1,-1,-1,-1,-1,-1,-1,-1,-1,-1,-1,-1],"loss_changes":[3.4417664E2,1.961412E2,3.646704E1,5.2198116E1,1.6420074E1,1.1375839E1,5.9557037E0,5.978863E0,2.4983261E1,1.0186981E1,4.609352E0,6.197876E0,2.1394707E1,5.8954773E0,0E0,3.297718E0,2.2718697E0,3.8897247E0,5.572318E0,3.5535316E0,4.1838837E0,2.2236938E0,5.2923355E0,4.3952675E0,2.0219727E0,5.1938796E0,6.5235596E0,9.579849E-1,7.0828676E-1,1.8932297E0,3.9859178E0,1.2994156E0,3.0259705E0,9.8608077E-1,3.0424042E0,4.7144976E0,5.019226E0,0E0,0E0,2.624977E0,2.6562119E0,1.7081146E0,0E0,3.2610016E0,2.773655E0,5.263138E-2,1.5652275E0,0E0,2.3267517E0,1.092406E0,8.872585E0,4.8932266E-1,3.6213531E0,0E0,0E0,0E0,0E0,0E0,0E0,0E0,0E0,0E0,0E0,0E0,0E0,0E0,0E0,0E0,0E0,0E0,0E0,0E0,0E0,0E0,0E0,0E0,0E0,0E0,0E0,0E0,0E0,0E0,0E0,0E0,0E0,0E0,0E0,0E0,0E0,0E0,0E0,0E0,0E0,0E0,0E0,0E0,0E0],"parents":[2147483647,0,0,1,1,2,2,3,3,4,4,5,5,6,6,7,7,8,8,9,9,10,10,11,11,12,12,13,13,15,15,16,16,17,17,18,18,19,19,20,20,21,21,22,22,23,23,24,24,25,25,26,26,27,27,28,28,29,29,30,30,31,31,32,32,33,33,34,34,35,35,36,36,39,39,40,40,41,41,43,43,44,44,45,45,46,46,48,48,49,49,50,50,51,51,52,52],"right_children":[2,4,6,8,10,12,14,16,18,20,22,24,26,28,-1,30,32,34,36,38,40,42,44,46,48,50,52,54,56,58,60,62,64,66,68,70,72,-1,-1,74,76,78,-1,80,82,84,86,-1,88,90,92,94,96,-1,-1,-1,-1,-1,-1,-1,-1,-1,-1,-1,-1,-1,-1,-1,-1,-1,-1,-1,-1,-1,-1,-1,-1,-1,-1,-1,-1,-1,-1,-1,-1,-1,-1,-1,-1,-1,-1,-1,-1,-1,-1,-1,-1],"split_conditions":[1.3E1,2.48E2,4E0,1.28E2,1.3386E2,2.72E2,2.82E2,1.2225E2,1.2266E2,1.187E1,1.7158E2,8.1E1,1.13E2,3.55E2,-5.5930614E-2,2.564E1,1.5E1,1.4E2,1.88E2,4.45E2,8.4E1,1.7052E2,6E-1,9.2E1,1.0091E2,4.66E2,1.5673E2,8.6E1,1.3292E2,6.4E1,1.0091E2,3.3737E2,2.857143E-1,1.1732E2,9.876E1,3.5774E2,2.07E2,5.8933645E-2,2.9549075E-2,5.092E1,1.2915E2,2.69E2,3.5851624E-2,4E0,4.59E2,3.9128E2,3.1328E2,-5.048659E-2,4.4879E2,3.28E2,1.4734E2,2E2,3.1692E2,-3.2095265E-2,-4.93079E-2,-7.869767E-3,-2.5238682E-2,-2.9988674E-2,-4.3531223E-3,1.2829985E-2,-3.0762348E-3,-1.4013809E-2,-3.0348638E-2,-9.735127E-3,1.4817028E-3,4.983079E-3,-1.3171549E-2,2.3761034E-2,1.3268555E-2,4.083742E-3,-9.321093E-3,-8.135686E-3,6.1652844E-4,1.6133586E-2,-4.1624885E-3,2.2257432E-2,3.632939E-2,8.020311E-3,1.6977888E-2,9.963359E-3,-1.3738461E-2,2.97941E-2,1.3231614E-3,-3.909361E-2,-2.8018588E-2,-1.4526017E-2,-2.3762204E-2,-2.7594475E-2,-4.2371094E-2,-1.1289633E-2,-6.214942E-4,4.9045015E-2,-1.2277053E-2,-2.9633477E-2,-4.952718E-2,-1.158937E-2,-2.5864815E-2],"split_indices":[4,3,0,3,1,3,4,1,2,1,2,4,4,3,0,1,3,3,3,3,1,2,8,3,2,3,1,4,2,3,2,2,8,1,1,1,3,0,0,2,2,3,0,4,3,1,1,0,1,3,2,4,1,0,0,0,0,0,0,0,0,0,0,0,0,0,0,0,0,0,0,0,0,0,0,0,0,0,0,0,0,0,0,0,0,0,0,0,0,0,0,0,0,0,0,0,0],"split_type":[0,0,0,0,0,0,0,0,0,0,0,0,0,0,0,0,0,0,0,0,0,0,0,0,0,0,0,0,0,0,0,0,0,0,0,0,0,0,0,0,0,0,0,0,0,0,0,0,0,0,0,0,0,0,0,0,0,0,0,0,0,0,0,0,0,0,0,0,0,0,0,0,0,0,0,0,0,0,0,0,0,0,0,0,0,0,0,0,0,0,0,0,0,0,0,0,0],"sum_hessian":[6.730825E3,5.750794E3,9.800312E2,3.7092283E3,2.0415657E3,7.8821576E2,1.9181541E2,1.724063E3,1.9851652E3,6.6081726E2,1.3807484E3,4.1495218E2,3.7326358E2,9.352149E1,9.829392E1,2.654396E2,1.4586234E3,3.7212946E2,1.6130358E3,4.8589455E1,6.122278E2,7.23221E2,6.5752734E2,2.5623447E2,1.5871771E2,1.2759838E2,2.456652E2,6.816751E1,2.5353975E1,2.8617695E1,2.3682193E2,1.5786137E2,1.300762E3,2.8910616E1,3.4321884E2,9.314096E2,6.8162616E2,2.4922913E1,2.3666542E1,8.341249E1,5.288153E2,7.0874554E2,1.4475459E1,5.9773425E2,5.979307E1,5.2588943E1,2.0364551E2,2.4526285E1,1.3419144E2,1.053585E2,2.2239887E1,3.554849E1,2.1011671E2,2.009422E1,4.8073296E1,1.4893495E1,1.0460481E1,1.3970145E1,1.4647549E1,4.874859E1,1.8807333E2,1.4449083E2,1.3370546E1,1.2378269E3,6.293507E1,1.710951E1,1.1801105E1,1.0016943E2,2.430494E2,8.613563E2,7.005327E1,2.7169427E2,4.099319E2,6.2632977E1,2.0779518E1,4.906444E2,3.81709E1,6.0882896E1,6.478627E2,5.836883E2,1.4045983E1,4.9373676E1,1.0419396E1,3.675132E1,1.5837626E1,8.793522E1,1.157103E2,8.507443E1,4.9117E1,3.5712147E1,6.964635E1,1.210822E1,1.0131667E1,1.0520609E1,2.5027878E1,6.825095E1,1.4186577E2],"tree_param":{"num_deleted":"0","num_feature":"9","num_nodes":"97","size_leaf_vector":"1"}},{"base_weights":[1.6121999E-3,8.947018E-2,-5.3158337E-1,-4.073089E-2,3.2921383E-1,-7.2522086E-1,-2.7884048E-1,-1.6263527E-1,6.792841E-2,3.9310655E-1,2.1170561E-1,-1.0591539E0,-6.0892195E-1,-3.024247E-1,2.6022008E-2,2.3888436E-3,-1.9452922E-1,2.956047E-1,1.5960233E-2,8.2825124E-1,3.758482E-1,2.2380435E-1,-1.258633E-2,-5.6470025E-1,-5.710077E-2,-5.2445275E-1,-7.5471836E-1,-3.763613E-1,-1.5876617E-1,-3.5206878E-1,4.2518493E-2,-2.9336283E-1,-1.6372529E-1,-6.1927303E-3,3.1972247E-1,5.520107E-2,-7.990338E-2,5.9321832E-2,2.2134265E-2,-1.109874E-3,3.8056105E-1,-1.6775301E-3,2.3589288E-1,-4.9727004E-2,-3.0558524E-3,-4.0798634E-2,-4.9892712E-1,-1.9247783E-2,-7.8661454E-1,-2.4709828E-1,-4.573622E-1,-8.238664E-2,-2.6098353E-1,-1.0340492E-2,-2.8238198E-2,-1.8885452E-2,3.61707E-3,-2.256435E-2,-1.14784725E-2,-2.8322847E-3,-9.469183E-3,2.1097887E-2,1.2297486E-2,5.506833E-3,-3.8299532E-4,-3.1624292E-3,-2.4148429E-2,2.1063289E-2,1.7157324E-2,-1.1708056E-2,8.5854E-3,2.961871E-2,1.1085638E-2,-2.6158923E-2,-1.1641389E-2,-4.3845978E-2,-3.1074375E-2,-2.8354276E-2,-6.277004E-3,-2.1473084E-2,-3.8380656E-2,6.519034E-3,-1.0319617E-2,-8.155901E-3,-2.5527915E-2],"categories":[],"categories_nodes":[],"categories_segments":[],"categories_sizes":[],"default_left":[0,0,0,0,0,0,0,0,0,0,0,0,0,0,0,0,0,0,0,0,0,0,0,0,0,0,0,0,0,0,0,0,0,0,0,0,0,0,0,0,0,0,0,0,0,0,0,0,0,0,0,0,0,0,0,0,0,0,0,0,0,0,0,0,0,0,0,0,0,0,0,0,0,0,0,0,0,0,0,0,0,0,0,0,0],"id":15,"left_children":[1,3,5,7,9,11,13,15,17,19,21,23,25,27,-1,29,31,33,35,37,39,41,-1,43,-1,45,47,49,51,53,55,57,59,-1,61,63,65,-1,-1,-1,67,69,71,-1,-1,-1,73,-1,75,77,79,81,83,-1,-1,-1,-1,-1,-1,-1,-1,-1,-1,-1,-1,-1,-1,-1,-1,-1,-1,-1,-1,-1,-1,-1,-1,-1,-1,-1,-1,-1,-1,-1,-1],"loss_changes":[3.137497E2,1.795006E2,4.6167664E1,4.9382057E1,1.5111511E1,2.0165009E1,7.935726E0,9.247242E0,2.3320457E1,9.525391E0,4.065277E0,4.9706116E0,4.527603E0,4.204197E0,0E0,4.0765243E0,4.434368E0,3.7452164E0,6.046111E0,6.260788E0,2.3752747E0,1.9011459E0,0E0,4.6256237E0,0E0,1.5008621E0,1.3999634E0,2.654377E0,1.0569615E0,7.837224E-1,3.2530417E0,3.4081917E0,3.0794601E0,0E0,2.5107918E0,3.938262E0,3.103682E0,0E0,0E0,0E0,1.7545319E0,1.5105301E0,3.2143211E0,0E0,0E0,0E0,1.4162331E0,0E0,1.4226456E0,3.973897E0,1.0666733E0,2.151401E0,1.3483543E0,0E0,0E0,0E0,0E0,0E0,0E0,0E0,0E0,0E0,0E0,0E0,0E0,0E0,0E0,0E0,0E0,0E0,0E0,0E0,0E0,0E0,0E0,0E0,0E0,0E0,0E0,0E0,0E0,0E0,0E0,0E0,0E0],"parents":[2147483647,0,0,1,1,2,2,3,3,4,4,5,5,6,6,7,7,8,8,9,9,10,10,11,11,12,12,13,13,15,15,16,16,17,17,18,18,19,19,20,20,21,21,23,23,25,25,26,26,27,27,28,28,29,29,30,30,31,31,32,32,34,34,35,35,36,36,40,40,41,41,42,42,46,46,48,48,49,49,50,50,51,51,52,52],"right_children":[2,4,6,8,10,12,14,16,18,20,22,24,26,28,-1,30,32,34,36,38,40,42,-1,44,-1,46,48,50,52,54,56,58,60,-1,62,64,66,-1,-1,-1,68,70,72,-1,-1,-1,74,-1,76,78,80,82,84,-1,-1,-1,-1,-1,-1,-1,-1,-1,-1,-1,-1,-1,-1,-1,-1,-1,-1,-1,-1,-1,-1,-1,-1,-1,-1,-1,-1,-1,-1,-1,-1],"split_conditions":[1.5E1,2.49E2,1.34E2,1.3E2,1.6837E2,7.523E1,4.44E2,1.2307E2,1.2266E2,1.165E1,4E0,8.8E1,4.7543E2,2.46E2,2.6022008E-2,1.4E1,3.5E1,1.38E2,2.1229E2,4.46E2,2.52E2,1.698E2,-1.258633E-2,1.05E2,-5.710077E-2,7E0,4.4E1,3.1692E2,3.526E2,1E1,1.907E1,1.4776E2,1.3831E2,-6.1927303E-3,1.0939E2,1.85E2,6.2449E2,5.9321832E-2,2.2134265E-2,-1.109874E-3,1.3322E2,3.47E2,1.7133E2,-4.9727004E-2,-3.0558524E-3,-4.0798634E-2,3.44E2,-1.9247783E-2,2.4486E2,6.522E1,3.02E2,5.6E1,4.62E2,-1.0340492E-2,-2.8238198E-2,-1.8885452E-2,3.61707E-3,-2.256435E-2,-1.14784725E-2,-2.8322847E-3,-9.469183E-3,2.1097887E-2,1.2297486E-2,5.506833E-3,-3.8299532E-4,-3.1624292E-3,-2.4148429E-2,2.1063289E-2,1.7157324E-2,-1.1708056E-2,8.5854E-3,2.961871E-2,1.1085638E-2,-2.6158923E-2,-1.1641389E-2,-4.3845978E-2,-3.1074375E-2,-2.8354276E-2,-6.277004E-3,-2.1473084E-2,-3.8380656E-2,6.519034E-3,-1.0319617E-2,-8.155901E-3,-2.5527915E-2],"split_indices":[4,5,5,5,2,2,5,2,2,2,4,4,1,5,0,5,5,3,1,5,5,1,0,3,0,5,4,1,1,3,2,1,2,0,1,3,1,0,0,0,1,5,1,0,0,0,4,0,2,2,4,4,3,0,0,0,0,0,0,0,0,0,0,0,0,0,0,0,0,0,0,0,0,0,0,0,0,0,0,0,0,0,0,0,0],"split_type":[0,0,0,0,0,0,0,0,0,0,0,0,0,0,0,0,0,0,0,0,0,0,0,0,0,0,0,0,0,0,0,0,0,0,0,0,0,0,0,0,0,0,0,0,0,0,0,0,0,0,0,0,0,0,0,0,0,0,0,0,0,0,0,0,0,0,0,0,0,0,0,0,0,0,0,0,0,0,0,0,0,0,0,0,0],"sum_hessian":[6.695528E3,5.7490527E3,9.464752E2,3.7262268E3,2.0228259E3,5.3484076E2,4.116345E2,1.7558499E3,1.9703768E3,1.3088304E3,7.1399554E2,1.3605997E2,3.987808E2,4.004404E2,1.1194093E1,2.8453714E2,1.4713127E3,3.6529688E2,1.60508E3,4.8136868E1,1.2606935E3,6.9633356E2,1.7661974E1,2.0650211E1,1.1540975E2,2.5540533E2,1.4337547E2,2.6330542E2,1.3713498E2,2.8146969E1,2.5639017E2,3.4758194E2,1.1237308E3,1.9636747E1,3.4566013E2,1.1391885E3,4.658915E2,2.3877691E1,2.4259176E1,1.4708453E1,1.2459851E3,3.5476025E1,6.6085754E2,1.0614847E1,1.0035365E1,1.8069746E1,2.3733559E2,1.2423425E1,1.3095204E2,1.02994705E2,1.603107E2,7.9520874E1,5.761411E1,1.789679E1,1.0250179E1,1.6216875E1,2.4017328E2,9.825983E1,2.4932211E2,2.1783824E2,9.058926E2,1.4290324E2,2.0275688E2,6.075153E2,5.3167316E2,4.485156E2,1.737591E1,5.918403E2,6.5414484E2,1.5005464E1,2.0470562E1,2.3722034E1,6.371355E2,2.1662689E2,2.0708685E1,8.186884E1,4.90832E1,2.7345596E1,7.564911E1,1.4927115E2,1.1039561E1,2.9262043E1,5.025883E1,4.257342E1,1.5040689E1],"tree_param":{"num_deleted":"0","num_feature":"9","num_nodes":"85","size_leaf_vector":"1"}},{"base_weights":[-1.8836649E-3,-1.4233384E-1,2.8265917E-1,-4.283458E-2,-5.0785446E-1,3.1896073E-1,-1.7437216E-2,-1.4870393E-1,5.128561E-2,-3.5544217E-1,-7.721837E-1,4.477554E-1,2.7774286E-1,-1.1967952E-1,1.9208665E-1,-2.691722E-2,-1.869714E-1,3.5162795E-1,1.3916662E-2,-4.3638334E-1,-2.3876299E-1,-9.5445216E-1,-5.4490006E-1,7.676589E-1,4.1119757E-1,2.2887838E-1,3.324626E-1,-1.8794702E-2,-2.3371099E-1,3.3868957E-2,6.989923E-2,-3.4086093E-1,-5.2303425E-4,-1.5339394E-1,-2.53564E-1,5.213907E-1,3.0293608E-1,6.7423694E-2,-6.3982315E-2,-4.337951E-2,-4.107921E-1,-1.2837827E-1,-3.613904E-1,-5.7233244E-2,-7.6828104E-1,-8.153758E-1,-4.7443864E-1,5.2140355E-2,4.5512715E-1,3.8615182E-1,7.1882546E-1,2.6286036E-1,8.998645E-2,7.209937E-1,3.1651866E-1,-1.2260442E-1,1.6081107E-1,-3.2399005E-1,-8.5616395E-2,1.9316499E-1,-8.781698E-2,-2.6877722E-2,4.0790366E-4,1.1709334E-2,-2.5067646E-3,-8.268568E-3,7.5957202E-3,-2.7197955E-2,-1.0991002E-2,3.5547778E-2,1.4752566E-2,-6.171524E-3,1.7416775E-2,-1.6789902E-3,5.308019E-3,-7.9432456E-4,-7.8088227E-3,-2.7662057E-2,-1.9165369E-2,-2.4996633E-2,-3.4833958E-3,-1.593564E-2,